svm_type c_svc
kernel_type linear
nr_class 12
total_sv 1735
rho -0.721401 -0.373267 -0.907977 -1.03828 -1.06793 -0.940608 -0.919084 -0.876393 -0.989301 -1.08098 -0.876238 0.343324 -0.256339 -0.733859 -0.911659 -0.32234 -0.250923 -0.146139 -0.400569 -0.776612 -0.302332 -0.787987 -0.90501 -0.984836 -0.640419 -0.564269 -0.497541 -0.907362 -0.947465 -0.753088 -0.568661 -0.820452 -0.106329 0.0528354 0.192254 -0.0622156 -0.647347 0.0418567 -0.387403 0.644711 0.563663 0.655803 0.571636 -0.0264513 0.697594 0.796427 0.73981 0.862715 0.776504 0.255245 0.785879 0.078299 0.214863 -0.226859 -0.634731 0.0497909 0.205742 -0.150365 -0.678765 0.0092409 -0.286695 -0.770124 -0.121533 -0.596589 0.214043 0.576705
label 8 11 5 6 3 1 10 9 0 4 7 2
probA -2.03064 -1.66539 -2.81538 -4.49883 -4.90025 -1.73889 -1.75327 -1.9019 -2.24789 -2.96563 -2.43382 -1.04936 -1.68949 -1.94789 -3.85011 -1.85493 -1.51018 -1.09638 -2.11815 -2.53987 -1.48535 -0.622076 -2.04281 -2.83706 -1.43238 -1.96195 -1.34385 -0.79152 -1.63396 -1.71732 -1.74644 -3.83205 -2.85069 -2.08287 -2.54002 -1.20303 -2.51444 -2.89005 -0.17893 -2.80674 -4.51078 -2.48615 -1.96834 -3.05418 -0.966825 -2.80589 -4.27528 -2.8984 -1.63721 -1.99977 0.73842 -3.53844 -1.85976 -1.06008 -1.49745 -2.74338 -1.3532 -3.25443 -2.93168 -2.61385 -2.26479 -0.983373 -1.53297 -2.2822 -2.29984 -3.83613
probB 0.0105745 0.19458 0.160081 0.775631 0.876805 -0.888433 -0.393833 -0.141545 -0.275238 -0.161837 -0.504659 0.433841 -0.246323 -0.80414 0.116406 -0.687712 -0.469486 -0.193585 -0.440084 -0.569398 -0.796058 -1.28274 -1.42491 -0.804643 -1.16736 -0.590463 -0.523686 -1.51202 -1.61989 -1.15714 -0.573496 0.122911 -0.31249 -0.0683968 0.0437169 -0.3388 -0.307631 -0.388474 -0.425661 -0.42416 -0.563329 0.401153 0.150355 -0.277576 0.0348056 -0.357988 -0.785123 0.294978 0.4871 -0.109616 1.29565 0.331274 0.436737 0.232589 -0.182495 0.0433933 0.282995 -0.180684 -0.0890765 -0.379428 -0.242972 -1.34 -0.758117 -0.114274 -0.118016 -0.246071
nr_sv 291 263 548 115 27 17 54 80 205 69 25 41
SV
0.01336239075697939 0.083837690258909 0 0 0 0 0.1088638993309093 0 0 0 0 143:1 253:1 385:1 1086:1 1146:1 1412:1 1518:1 1741:1 1944:1 1990:1 2015:1 2659:1 2687:1 2827:1 
0 0 0 0 0 0 0.1678140644435231 0.01762152056102998 0 0 0 214:1 1944:1 2659:1 
0.08991205171978779 0 0.05556456651218198 0 0.002886011405530713 0.01955022363498776 0 0.2409928384614014 0.01200410095537961 0.1306264994594531 0 135:1 282:1 361:1 1330:1 1380:1 1780:1 2165:1 2257:1 2396:1 2515:1 2637:1 
0 0.6735289980715319 0 0 0 0 0 0 0 0 0 743:1 2165:1 2659:1 2856:1 2909:1 2977:1 
0 0.007101271977491196 0.01588992074252136 0 0 0.0508221812134802 0.01797346343828307 0.1722301638019844 0 0 0 117:1 135:1 262:1 298:1 357:1 511:1 664:1 870:1 1009:1 1130:1 1161:1 1386:2 1780:1 1844:1 1944:1 2405:2 2637:2 2659:1 2734:1 2814:1 2909:2 2936:1 2977:1 
0 0 0.1585300148857282 0 0 0 0 0 0 0 0 403:1 1138:1 1241:1 3009:1 3025:1 
0.2810701535071705 0.08386566746615731 0.01965152596907522 0 0 0 0.0251235258045294 0 0 0 0.03147035446859104 403:1 1041:1 1693:1 1717:1 2867:1 2881:2 
0 0.03274916879272022 0.0320380196370733 0 0 0 0 0.04569610172709467 0 0 0 135:1 223:1 385:1 784:1 901:1 1138:1 1214:1 1506:1 2265:1 2659:1 2687:1 
0.006780830902476517 0 0 0.06034052277505124 0 0 0 0.03002687438964468 0 0 0.07808049471698847 1533:1 1936:1 1973:1 2626:1 2922:1 
0.2397852320532426 0.8119658763575427 0.1857103532720059 0.01952335712460857 0 0.1397248444263161 0.7448971269026547 0.744872987667818 0 0.6800711796274933 0.1017986703388023 1915:1 2463:1 2637:1 
0 0.04873121314143789 0 0 0 0 0.2378257663850184 0.0120301352178043 0 0 0 217:1 276:1 777:1 946:1 1041:1 1086:1 1217:1 1227:1 1267:2 1386:2 1410:1 1500:1 1944:1 2022:1 2637:1 2659:1 2687:2 2746:1 3025:1 
0 0 0 0.00998281346920625 0 0 0 0 0 0 0 42:1 135:1 403:1 721:1 903:1 931:1 1000:1 1217:1 1386:1 1693:1 1762:1 2645:1 2653:1 2694:1 2744:1 2934:1 
0 0.2798450715292877 0 0 0 0 0.3532852469615103 0.002680068182089127 0 0 0 167:1 253:1 282:1 1148:1 1210:1 1330:1 1397:1 1715:1 1944:1 2165:1 2637:2 2659:1 2687:1 3022:1 
0 0.6878281338575154 0.2283368707962382 0 0 0 0 0 0 0 0 931:1 1161:1 1188:1 
0.1033042353559347 0.4316314828823644 0 0 0 0 0.2148572138982033 0 0 0 0 223:1 1144:1 
0 0.298001009252522 0 0 0 0 0 0.1941279794251058 0 0 0 135:1 875:1 1138:1 1297:1 
0.1317560731922844 0.9413612093962491 0.09363240854066648 0 0 0.08589070025929443 0 0.02939976243396978 0.04773007152501339 0 0 1276:1 1386:1 2909:1 
0 0.1736782233854863 0 0 0 0 0.1041621997942153 0 0 0 0.05480130135490848 253:1 361:1 1148:1 1210:1 1330:1 1670:1 1762:1 1782:1 1838:1 2166:1 2637:1 2659:1 2687:1 
0.644004393581374 0 0.01671639659443241 0 0 0 0 0 0 0 0 102:1 172:1 294:1 745:1 
0 0.3647516691297525 0 0 0 0 0 0 0 0 0 1086:1 1569:1 2637:1 2734:1 3000:1 
0.1308107829965459 0.2279939100865572 0.02637993128453965 0 0.007396365784279452 0.007237543096754614 0 0.1027835511402938 0.1289481066321126 0 0 119:1 167:1 181:1 192:1 385:1 1041:1 1330:1 1397:1 1417:1 1503:1 1701:1 1825:1 1944:1 2405:1 2637:1 2659:1 2737:1 2847:1 2909:1 3015:1 
0 0 0 0 0 0 0.1018308226814571 0 0 0 0 134:1 806:1 1286:1 1380:1 1782:1 1944:1 2659:1 3000:1 
0 0 0 0 0 0 0 0.1589474042690714 0.06883586953051582 0 0 87:1 117:1 181:2 223:1 403:1 534:1 1241:1 1680:1 2405:1 
0.1168315514124392 1 0.07778616202621626 0.0195473805511028 0.02823805377624433 0 0.1152810640048595 1 0.0656051448135009 0.07249415472197053 0.02484991443376529 134:1 135:1 197:1 244:1 303:1 385:1 424:1 832:1 963:1 1063:1 1105:1 1146:1 1255:1 1380:1 1473:1 1504:1 2006:1 2447:1 2861:1 2904:1 2934:1 2977:1 
0 0 0 0.002181639820791515 0 0 0 0.147815834422366 0 0.01879192978113271 0.06978319021769509 135:1 267:1 792:1 875:1 931:1 949:1 1217:1 1713:1 1762:1 2637:1 2681:1 2687:1 
0 0.2043621442315965 0.0710006955439918 0 0 0.0670622128644682 0 0.05664217053348732 0 0.09495157046798271 0 1386:1 1427:1 1533:1 1815:1 2608:1 2700:1 
0.06410822270011036 0.1726168516794422 0 0 0 0 0.0351302120622882 0.007736769007485857 0 0 0.06366188511977673 136:1 139:1 669:1 721:1 906:1 1111:1 1138:1 1417:1 1780:1 1944:1 1972:1 2634:1 2637:1 2687:2 2746:1 2765:1 3038:1 
0 0.2764263733186428 0 0 0 0 0 0 0 0.2014246462364224 0 389:1 962:1 976:1 1330:1 1380:1 1693:1 1711:1 1944:1 2637:1 2659:1 
0.3455442879602749 0.4729923126690676 0.1336888239621179 0 0 0.035038356439362 0.1065077638577454 0.2349162375638978 0 0 0.1898735469936412 1137:1 1870:1 2637:1 2687:1 
0.07608616474120601 0.4634224884826109 0.1454237278504408 0.003678022303193666 0 0.0542987597422806 0 0.02735765149078315 0 0.01600345271356185 0.05287122657246796 102:1 777:1 1304:1 1417:1 2637:1 2783:1 
0 0 0 0 0 0 0 0.4120973839363164 0 0 0 1093:1 1138:1 1380:1 2165:1 2659:1 2687:2 
0 0.08547310933896098 0 0 0 0 0 0 0 0 0 87:1 777:1 1138:1 2653:1 3001:1 
0 0.230028600344339 0 0 0 0.7619662581930163 0.1122713744804139 1 0 0 0 1161:1 1380:1 1944:1 2659:1 
0.07858198747824854 0.1792463531860618 0.1026356789800982 0 0 1 0.02051755497707606 0 0.1001546698736848 0.08685691958093197 0.008330639799037273 385:1 1386:1 1780:1 2020:1 2353:1 2386:1 2637:1 3000:1 
0 0 0 0 0 0 0 0.01934310979790527 0 0 0 223:1 253:1 2962:1 
0.2239945842305249 1 0.1202112097835463 0.07547641617378052 0.01766528988502289 0.07918140193181786 0.03109294833019125 0.251953311779148 0.1809837525264326 0.1184733079303043 0.07572434931911448 116:1 267:1 913:1 1035:1 1041:1 1138:1 1161:1 1210:1 1260:1 1380:2 1594:1 1948:1 2562:1 2627:1 2628:1 2637:2 2645:1 2700:1 2831:1 2953:1 2977:1 
0 0 0 0.02662267736383138 0 0 0 0 0 0 0 135:1 267:1 403:1 880:1 1111:1 1144:1 1217:1 1386:1 1789:1 2363:1 2645:1 
0.03650605909669943 0 0 0 0 0 0 0 0 0 0.1009731729596261 116:1 135:1 267:1 932:1 1188:1 1217:1 2645:1 2669:1 2681:1 2847:1 2984:1 
0.04662481507396021 0.06906536060509026 0.004377388820266495 0 0 0 0 0.01360240617440061 0.03037630760377912 0.02208094918455857 0 102:1 135:2 181:1 193:1 262:1 385:1 645:1 726:1 875:1 1080:1 1311:1 1386:1 1647:1 1680:1 1693:1 1741:1 1811:1 2092:1 2144:1 2166:1 2179:1 2300:1 2552:1 2637:1 2759:1 2856:1 2868:1 2922:2 2950:1 
0 0 0 0 0 0 0.05768458566092253 0 0.1006111456683752 0 0 135:1 253:1 976:1 1380:2 1386:1 1643:1 1693:1 1741:1 1762:1 1782:1 2166:1 2659:1 2687:1 
0.01496792994451498 0.04079135806305848 0.07391417144262785 0 0 0.008341522463680487 0.01710166311572967 0 0 0 0 1041:1 1080:1 1105:1 1376:1 2631:1 2641:1 2659:1 2687:1 2962:1 3025:1 3027:1 
0.1615684558361058 0.241517834844002 0 0 0 0 0 0 0 0.02050972036233121 0.07551745323632356 385:1 438:1 1057:1 1105:1 1188:1 1473:1 1780:1 2070:1 2524:1 2634:1 2637:1 2665:1 2922:4 2937:1 2948:1 3009:1 
1 1 0 0 0 0.02324038038148118 0 0 0 0 0 166:1 217:1 1035:1 1086:1 1330:1 1603:1 1750:1 1762:1 1782:1 2166:1 2220:1 2317:1 2487:1 2645:1 2659:1 2699:1 
0 0 0.09068267204732386 0 0.0133944509876626 0 0.08771572095093869 0 0 0 0 135:1 192:1 1157:1 1188:1 1302:1 1401:1 2679:1 
0.1131666154002829 0.1801455816881462 0.1276385141293037 0.03945937418392781 0.02563249534592011 0.0538724436982902 0.05288322868350742 1 0.06222034657324204 0.05679807891622541 0.01569052793880467 42:1 62:1 135:1 891:1 904:1 1386:1 1534:1 2348:1 2637:1 
0.4083293378113702 1 0 0.01753386268104497 0 0 0 0 0 0 0 1689:1 2746:1 
0.07013624182722424 0 0 0 0.008148314661681366 0.02703563387484094 0.003487535890512492 0.07090567354638051 0 0 0 51:1 85:1 135:1 784:1 1057:1 1076:1 1161:1 1780:2 1815:1 1955:1 2028:1 2046:1 2105:1 2165:1 2295:1 2543:1 2637:1 2659:1 2687:1 2921:1 2972:1 
0.1495372019324614 0.2847851412781766 0.007569681884495993 0.02749367844404253 0 0 0.0004813959875445113 0.2129646568727004 0.04797363248582763 0 0.022560205753788 134:1 253:1 763:1 913:1 932:1 1000:1 1188:1 1330:1 1380:1 1572:1 1974:1 2405:1 2637:1 2638:1 2687:1 2743:1 2977:1 
0 0 0.0108015309236976 0 0 0 0 0 0 0 0 1041:1 1330:1 1572:1 1620:1 1752:1 2174:1 2659:1 2681:1 2713:1 2922:1 2962:1 
0 0 0 0 0 0 0 0 0.03921510515768151 0 0 172:1 192:1 267:1 282:1 391:1 1341:1 1380:1 1386:1 2030:2 2165:1 2455:1 2468:1 2499:1 2637:1 2681:1 2687:1 2798:1 2847:1 
0 0.3094077494646218 0 0 0 0 0 0 0 0 0 267:1 743:1 940:1 1217:1 1330:1 1713:1 2115:1 2637:1 
0 0.06318707559890288 0 0 0.01745883112849983 0.09258795930201905 0 0 0.04550078183777996 0 0.002902340948548717 192:1 407:1 940:1 1138:1 1169:1 2115:1 2637:1 3009:1 3025:1 
0.06259173966132986 0 0 0 0 0.0127987046948601 0.02895909368455251 0 0 0 0 832:1 1086:1 1110:1 1311:1 1642:1 1675:1 2165:1 2353:1 2637:1 2659:1 2687:1 2817:1 2922:2 2937:1 3001:1 
0.05681439346434971 0 0 0 0.03727054211917831 0.003409404381286539 0.01787747532542517 0 0 0.0575453629439543 0.0493920235214235 135:1 192:1 1161:1 1188:1 1302:1 1401:1 1458:1 1720:1 2044:1 2637:1 2679:1 2922:1 
0.1370450445592621 0.04132699836926355 0.1079965436081523 0.05308217679350104 0.05421836600225607 0.04682060827201554 0.02183767261204052 0.1331187675171991 0.09285742580442875 0.07096994922979483 0.07431066946556453 84:1 135:1 192:2 237:1 736:1 787:1 878:1 1188:1 1816:1 2097:1 2252:1 2573:1 2637:1 2922:1 
0 0 0 0 0.09297161171706719 0.008300227647465717 0.03621914647423156 0.4021814298576578 0 0 0.08293457575169341 135:2 736:1 804:1 1219:1 1251:1 2112:1 2165:1 2659:1 2869:1 
0 0.177935220084999 0 0 0 0 0.04273618277428318 0.02836828224083513 0.05143106491870194 0 0.0007075103148341171 135:3 137:1 253:1 961:1 1041:1 1138:1 1161:1 1299:1 1302:1 1386:2 1401:1 1693:1 1815:2 2044:1 2554:1 2637:1 2666:1 2687:3 2909:1 3001:1 
0 0.07999195783680907 0 0 0 0 0.1403570428681248 0 0 0 0 81:1 135:1 1138:1 1693:1 1944:1 1960:1 2581:1 2659:1 2746:1 
0 0.230699199597991 0 0 0 0 0.1117902180117415 0 0 0 0 102:1 192:1 253:1 740:1 1741:1 2962:1 3025:1 
0 0.1986401389989596 0.03223598459590718 0.03960241095495771 0 0.00103499080250369 0 0 0.008071284448443712 0 0 304:1 389:1 760:1 1105:1 1330:1 1465:1 1501:1 1741:1 2637:1 2659:1 2922:1 2937:1 
0 0 0 0 0 0.02203297393960131 0 0.1957713454789961 0.03867701474210744 0.07789168911892307 0 135:1 1251:1 1386:1 1534:1 2112:1 3001:1 
1 0.3913088739480947 0 0 0 0.1406909742983512 0 0.167139842851181 0 0 0.2094685349972553 42:1 1146:1 1786:1 2165:1 2317:1 2637:2 2651:1 2659:1 2909:1 
0.1073559391297514 1 0.7706482795245864 0.03911720892494576 0 0.03126966104451907 0 0.1770608355571256 0.1872231353744429 0.04914143182341641 0.01004907077880377 121:1 135:1 605:1 686:1 1035:1 1067:2 1762:1 2165:1 2909:2 
0.0009205848098751219 0.1310170027916461 0.1741952613049683 0.0755714151731475 0.04319473716059788 0.1385751949255614 0 0.04586702462724659 0.04535738195703422 0 0.1195905379160299 1146:1 1421:1 2637:1 2814:1 2993:1 
0.02599207556727423 1 0 0 0 0.02123307214966817 0.1541675018992487 0 0 0 1 1386:1 2909:1 2984:1 
0.09944072081151749 0.1221573466921971 0 0 0 0 0.1809748671255612 0.07722266215279591 0.02726445794062687 0 0 135:1 664:1 875:1 943:1 1285:1 1330:1 1386:1 1547:1 1780:1 2507:1 2687:1 2909:1 
0 0 0 0 0 0 0.03998712075054296 0 0 0 0 87:1 143:1 253:1 389:1 900:1 1330:2 1380:1 1506:1 1762:1 1869:1 1944:1 2507:1 2552:1 2659:2 2687:1 2713:1 2948:1 
0.02176960676805828 0.2658749002741839 0.1516430015661237 0.0385024037645195 0.005369898142586029 0.01642479825660373 0.102626618617866 0 0.02705426374870418 0 0.0603918124337736 294:2 894:1 1001:1 1041:1 1112:1 2819:1 2988:1 
1 1 0.5805795817986584 0.05996894430085995 0.0111747773708925 1 0.2218350575867341 0.6711507192153519 0.9361131538224451 0 0.1499178080107496 102:1 135:1 1035:1 1161:1 1217:1 1386:1 2017:1 2317:1 2647:1 
0.0950384075430821 0.2353259515440044 0 0 0 0 0.1220327313069348 0.02204482037346608 0 0 0 121:1 134:1 135:1 515:1 1041:1 1188:1 1547:1 2106:1 2165:1 2416:1 2659:1 2679:1 2687:1 2936:1 2977:1 2995:1 
0.2915570389680192 0.3856495613009218 0.1357642900606284 0 0.0621386268783243 1 0 0.07747086531141664 0.296568600742602 0.01222481166805389 0.02476805393766832 166:1 385:1 987:1 1248:1 1386:2 2019:1 2637:1 2909:1 3000:1 3019:1 
0 1 0.8485789611438114 0 0 0 0.0778212341276095 0.1141504954809742 0.2008520632833029 0 0 573:1 1380:1 1386:1 1741:1 
0 0.1459537561571193 0 0 0 0.02376522354617069 0 0 0.0369088995039137 0.04515216902999093 0 135:1 769:1 1138:1 1723:1 1893:1 2950:2 3009:1 
0.06938102760460002 0.1988712051160891 0.1596283192902033 0.02800963616526978 0.005862528781736245 0.02773224514395166 0.1444966108134852 0.09092360133186743 0.03699001796062683 0.07550102554371668 0.08428327110789305 135:1 897:1 1380:1 1780:1 1886:1 2362:1 2619:1 2663:1 2984:1 
0 0.04554366403470024 0.02056876475466704 0 0.02158577227173591 0 0.009691271494578766 0.0370495081404786 0 0 0.03075472609888489 135:3 192:1 726:1 833:1 1138:2 1217:1 1380:1 1572:1 1782:1 1817:1 1944:1 2166:1 2659:1 2746:1 3025:1 
0 0 0.001206719079272821 0.02044342068499153 0 0 0 0 0 0 0.02632051980408879 87:1 181:1 223:1 482:1 528:1 677:1 1241:1 1693:1 1762:1 1782:1 2703:1 3001:1 
0 0 0 0 0 0.05670657084516213 0 0 0 0 0 294:1 2675:1 2814:1 
0 0.02905029424779994 0.03710436020723017 0 0 0.005824453525363284 0.1141585123556726 0.03213804092443491 0 0 0 135:2 1124:1 1161:1 1188:1 1275:1 1693:1 1720:1 1787:1 1811:1 1944:1 2524:1 2637:1 2659:1 2679:1 
0 0 0 0 0 0 0 1 0 0 0 457:1 1817:1 1944:1 2659:1 
0.2157474700474007 1 0.06141449141436946 0.04150762280569011 0.002446225373595373 0.0249333168033651 0.06161180006488375 0.07884762906414716 0 0.02544509940396982 0.08562883287532856 43:1 102:1 213:1 253:1 385:1 552:1 598:1 678:1 948:1 951:1 1035:1 1041:1 1563:1 1762:1 1786:1 1811:1 2116:1 2616:1 2637:3 2687:1 2814:1 2909:2 2953:1 
1 0 0 0 0 0 0.1437792904355098 1 0 0.007876951869074023 0 87:1 385:1 646:1 1138:1 1713:1 1718:1 1944:1 2472:1 2645:1 2881:1 3001:1 
0.2067092107361232 0.1733332285226755 0.08042927048040312 0.02880595957380759 0.03512283093676579 0.01944255861010486 0.1032854675167397 0.1747060603176285 0 0.02680249087609258 0.04625590660740166 493:1 701:1 860:1 976:1 1330:1 1380:1 1487:1 1693:1 1694:1 1709:1 1762:1 1782:1 1944:1 2166:1 2180:1 2423:1 2434:1 2637:3 2647:1 2937:1 
0 0.04465310361621894 0.004476557681536737 0 0 0 0 0 0.07294950801702278 0 0 1000:1 1771:1 2070:1 2175:1 2962:1 3025:1 3029:1 
0.2158458187104425 0.07097207039553408 0 0 0 0.007886472159679803 0.04241845710207032 0.7264512739392308 0 0.116800820708326 0 259:1 931:1 
0 0 0 0 0 0 0.0148290518735842 0 0 0 0 97:1 102:2 111:1 534:1 922:1 989:1 1138:1 1330:2 1717:1 2092:1 2097:1 2428:1 2637:1 2687:1 2814:1 2922:1 2977:1 2980:1 
0.187896280581497 0.2229227844121446 0.03418039606332972 0 0.03234662565361326 0.01290779723751221 0.1334359474021588 0.08963956715757335 0.1736134884319672 0.05667052452356761 0 192:1 1380:2 1611:1 1744:1 1872:1 2031:1 2043:1 
0 0.1085836389292926 0 0 0 0 0 0 0 0 0 147:1 1723:1 1950:1 2174:1 2428:1 2687:1 
0.2575183061891312 0.1804774581883969 0 0 0 0 0.01947806529253849 0.2214184014467186 0 0 0 883:1 928:1 956:1 1330:1 1338:1 1713:1 1815:1 2165:1 2534:1 
0.151536164345973 0 0 0 0 0 0 0 0 0 0 166:1 223:1 493:1 902:1 1138:1 1330:1 2637:1 2679:1 2922:2 2962:1 
0.1615965574674922 0.3246875699370116 0.1203933491445005 0.06228307238039076 0.003125806594601633 0.04769517138464011 0.08055657045782751 0.1504299854244852 0.1313710104962856 0.0002980559185145766 0 135:1 726:1 1302:1 1311:1 1401:1 2097:1 2419:1 2630:1 2746:1 2901:1 3025:1 
0 0.1488051814709063 0.06911508222239428 0 0 0 0 0 0 0 0 1386:1 1534:1 1693:1 1777:1 2371:1 3014:1 
0.2490914348261398 0.02283078417827434 0.1196851164480963 0.01306983405502561 0.0229657534434745 0 0.121342090127274 0.4053426943071988 0.1572854538616393 0.03927342872160385 0.02594332317190444 135:1 768:1 1093:1 1290:1 1303:1 1380:2 1400:1 1762:1 1781:1 1782:1 1945:1 2634:1 2653:1 2663:1 2687:1 
0 0.5200141898939327 0.03437804587927424 0.02237767065885927 0 0 0 0 0 0 0 1146:1 1188:1 2679:1 2922:1 
0.07784458692246482 1 0.02780551754217796 0.07861813991383586 0 0.09676696653055972 0 0 0.1572980456509997 0 0 139:1 1035:1 1146:1 1161:1 1741:2 1799:1 2637:1 2867:1 2881:1 2909:1 3000:1 
0.3602382635108489 0 0 0 0 0 0.2935018188029297 0 0 0 0 102:1 1251:1 2114:1 2687:1 
0 0.08533049770314009 0 0 0 0 0 0 0 0 0 1838:1 1944:1 2659:1 2665:1 2709:1 2909:1 
0.09472877992920224 0.9288307983241373 0.1782454650222362 0 0 0 0 0 0 0.005898326128369551 0 385:1 681:1 905:1 1146:1 1161:1 1188:1 1744:1 1775:1 1799:1 2909:1 2922:1 
0 0.02066022817099622 0.01862019382398228 0 0 1 0.03358371175520192 0 0 0 0 66:1 102:1 571:1 770:1 891:1 1386:3 1417:1 1594:1 2019:1 2297:1 2637:1 2687:1 2690:1 2948:1 3000:1 3025:1 
0 0.0119655204201686 0 0 0 0.002877718897784789 0 0 0 0 0 167:1 282:1 1330:1 1380:1 2165:1 2326:2 2485:1 2637:2 2659:1 2746:1 
0.007685421145401934 0.004727288320441084 0 0.04519408079968949 0 0 0.1356901839592709 0.04868519526270831 0 0.04727120144004568 0.03323470083948337 1127:1 1386:1 1689:1 1762:1 1817:1 2480:1 3021:2 
0.1893183977636515 0.262910311423841 0 0.0455598495269892 0 0.006775800559247413 0.05558447309715618 0.01308186703112292 0.03584540291438416 0.0182934039533057 0.06263644079463883 135:1 181:1 253:1 389:1 743:1 947:1 1041:1 1221:1 1511:1 1550:1 1588:1 1741:1 1762:1 2114:1 2156:1 2165:1 2234:1 2637:1 2659:1 2825:1 2909:1 2922:1 3001:1 
0 0 0 0 0 0 0 0.2250559884802542 0 0 0 116:1 731:1 1241:1 1386:2 1488:1 1563:1 1680:1 1715:1 1967:1 2405:1 2634:1 2687:1 2867:1 2922:3 2948:1 2962:1 3022:1 
0.2740867622064898 0 0.03369358799296954 0 0 0.03378920329932828 0.1359918534825631 0.0192437657063071 0.1016272487940656 0 0 134:1 135:1 299:1 913:1 1041:1 1188:1 1693:1 1780:1 2252:1 2645:1 2679:1 2909:1 2922:1 
0.114358892431805 0.006939806884380496 0.003523668464754444 0.05434495981095899 0.02935975143669713 0.05454703346594817 0.1231268111907969 1 0.07365260292786971 0.01959477214819486 0.01214559618829853 135:1 192:1 1380:1 1497:1 1569:1 1693:1 1762:1 2057:1 2165:1 2205:1 2637:1 2659:1 2703:1 2725:1 
0.1391651613487089 0.5306157797236593 0.2718069493650438 0 0 0.02968363347796016 0.04033815971574971 0.2118227282140712 0.09717089772238217 0 0.06175294714785155 689:1 1178:1 
0 0.1147590313718764 0.007438448273711207 0 0 0.005599600011887618 0.08854252073909911 0 0 0 0 1044:1 1386:1 1788:1 2000:1 2488:1 
0.08224887098390216 0.4707902039161163 0.1380385772408808 0 0 0.08353673984947824 0.03780147383540074 0.1009472446793142 0.04916788072737777 0.006553425944133832 0 862:1 2631:1 3025:1 
0 0.08692719063578562 0 0 0 0 0 0 0 0 0 1138:1 1663:1 2757:1 
1 1 0 0 0 0.005739741975500885 0 0 0 0 0.06920100246603324 961:1 
0.2137768291375032 0.1316151235326696 0.141925930455295 0.001340923921678875 0.03387760937515016 0.06443434848911912 0.09195001800356808 0.03306047871559809 0 0.02452380646182262 0.09138830322150479 135:2 1782:1 2259:1 2378:1 2637:1 2659:1 2679:1 2740:1 3029:1 
0.1525972317121058 0.6338849887075716 0.07941872460863673 0.003419224453790239 0 0.009063950725075985 0.3610243008179879 0.1410665590531412 0.04780099914817219 0.03126636175034797 0 130:1 1380:1 1744:1 2446:1 
0.4454335737302181 0.1001551948748334 0.1123330956268528 0 0 0 0 0 0.1194947800449701 0.01369565493750525 0 2:1 385:1 1127:1 1386:1 1826:1 
0 1 0.3058131477812406 0 0 0.05922971025039758 0.08056017826910455 0.1233862353031827 0.07471080419332181 0 0.1237092009903426 2:1 
0.1468511214494514 0.2974401819054036 0.0256418137470716 0.004109413408913767 0 0.02792934044061131 0.02793368801137243 0.1285603005068781 0.04781063250774095 0.03895912587664176 0 751:1 1209:1 1380:1 1780:1 1866:1 2362:1 
0.05256479383877107 0 0 0 0 0 0 0 0 0 0 253:1 1251:1 1741:1 2082:1 2165:1 2552:1 2634:1 2659:1 2960:1 3001:1 
0 0.1568363421059089 0.03208161755935293 0 0 0.06069388372253978 0 0 0.0407796423891329 0.02563983434929298 0 87:1 223:1 528:1 1041:1 2552:1 2989:1 
0.14514574342237 0.2241045954137746 0 0 0.01264263469137125 0 0 0 0.03764581961138376 0 0.01310952800785737 135:1 267:1 335:1 744:1 1217:1 2214:1 2681:1 2687:1 2757:1 2856:1 2937:1 
0.1871124151106156 0 0 0 0 0.1895824562764898 0 0 0 0 0.05533724414823483 1161:1 2554:1 2659:1 2909:1 
0.06994869751931222 0.1039941606757866 0.01980368827491549 0 0 0 0.02525748901856883 0 0 0 0.02168606236932239 87:1 836:1 1055:1 1241:1 1520:1 2687:1 
0.1462990066623593 1 0 0 0 0 0.1950091749369475 0 0 0.007658719991707343 0 1161:1 1380:1 1948:1 2627:1 
1 0 0 0 0 0 0 0.01228948209279262 0.02082862059669107 0.02962709124362929 0 192:1 253:1 294:1 304:1 385:1 403:1 890:1 1173:1 1217:1 1311:1 1380:1 1689:1 1826:1 2165:1 2220:1 2564:1 2637:2 2681:1 3025:1 
0 0 0 0 0 0.9734661879377723 0 0 0 0 0.0817542993600618 1661:1 1741:1 1826:1 2637:1 3000:1 
0.05880677314117797 0.02958531785907418 0.07750445490142439 0 0 0.03743394565634495 0 1 0.02064066404270306 0 0 192:1 197:1 385:1 708:1 744:1 836:1 931:1 1330:1 1386:2 2261:1 2637:1 2856:1 3027:1 
0.05341330460180568 0 0 0 0 0 0 0.1345254885864127 0 0 0 469:1 493:1 976:1 1102:1 1330:1 1341:1 1380:1 1693:1 2165:1 2637:1 
0 0 0 0 0 0 0.1677199651643988 0.01775187427050385 0 0 0 1507:1 1944:1 2659:1 
0.135790492784898 0.1681275410030164 0 0.1357142750215353 0.008184334095180113 0 0 0.1061121225667586 0 0 0.1738291473681839 1533:1 3031:1 
0 1 0 0.1000971154317544 0.02212736941122532 0 0.05745835884403627 0.2230402905138157 0.1166317256133689 0 0 134:1 1146:2 1354:1 1380:1 1617:1 1826:1 2097:1 2165:1 2283:1 2977:1 
0.07705928121200009 0.4436622473401907 0 0.04439245356243671 0.04198403078973575 0.01792129218440206 0 0 0.09213038059770197 0 0.01168733381453791 1959:1 2555:1 2856:1 2922:1 2937:1 
0 0 0 0 0 0.003064523270781296 0 0.0968213460246946 0 0 0 243:1 931:1 1251:1 1458:1 1720:1 1780:1 1815:1 2112:1 2165:1 2637:1 
0.08432741374393775 0 0 0.01945998603531038 0 0 0.1472136361136124 0.1359062167120392 0 0 0 559:1 644:1 777:1 1223:1 1417:1 1563:1 1661:1 1680:1 1762:1 2647:1 2687:1 2901:1 
0.1995816130427187 0 0 0 0 0 0 0.04865097212538321 0.005094799306975209 0 0.1666027570265446 777:1 1037:1 1960:1 2825:1 
0 0 0 0 0 0 0.1148591514900697 0.03424408921979151 0 0 0 1534:1 1944:1 2659:1 
1 0.2000151699802756 0.1373057825008991 0 0.03278342122016839 0.01022607268617827 0.08615766065819151 0.171226672151415 0.03198507160942422 0.0003497804205358802 0.04935355558190577 135:1 166:1 391:1 779:1 908:1 1111:1 1336:1 1380:1 1386:1 1409:1 1487:1 1594:1 1726:1 1910:1 2634:1 2637:1 2645:1 2956:1 2993:1 3009:1 
1 0.04147126917825005 0.04452833008092269 0.01368603556869505 0.005320099147509968 0.05170127340704352 0.1112072718620355 0.05375576021574976 0.002235535855679516 0.0490871918120272 0.01348741402959938 135:1 262:1 391:1 639:1 709:1 1111:1 1146:1 1161:1 1380:2 1726:1 1782:1 1944:1 2321:1 2416:1 2472:1 2637:2 2659:1 2743:1 2809:1 2814:1 2958:1 2976:1 3001:1 
0 0 0 0 0 0.00373216678832363 0.0003874213712657208 0 0 0 0 1161:1 1944:1 2943:1 
0 1 0.06193007178699573 0 0 0 0 0 0 0 0 87:1 1713:1 
0.056073846931833 0.3065455447906266 0.05977152913518725 0.02718872347526062 0 0.0564389439310226 0.08564834486318275 0.1699857269565463 0.08125324411219453 0.0587187989333764 0.02283081446740208 261:1 403:1 963:1 1035:1 1366:1 1380:1 1387:1 1750:1 1762:1 1780:1 2637:1 2659:1 
0.2096710852647345 0.3147428982103054 0.0903392009431241 0.01572007950925142 0.01754424330554789 0.0154581799575434 0.1426235883898136 0.2454070575277527 0.09623506114562659 0.004166374055872676 0.04431827780845224 45:1 135:1 355:1 382:1 1380:1 1386:1 1793:1 2226:1 2634:1 2653:1 2934:1 
1 1 0.0007845940797511065 0.001077179476816522 0.08577707738386697 0.03691691292982727 0.04039222825031878 1 0.1679528533189185 0 1 804:1 905:1 1035:1 1625:1 2472:1 2909:1 2984:1 
0.1516954206756452 0 0 0 0 0 0 0 0 0 0.02397584063260256 116:1 135:1 267:1 421:1 1161:1 1188:1 1217:2 1825:1 2645:1 2679:1 2681:1 2687:1 
0.04314367677939863 0.1003132555451038 0.02555121870518881 0 0 0 0.0596363589184447 0.03768186239267599 0 0 0 102:1 135:2 299:1 344:1 403:1 434:1 1380:1 1386:1 1553:1 1693:2 1720:1 1811:1 2265:1 2634:1 2637:1 2645:1 2687:1 2909:1 2936:1 
0 0 0 0 0 0 0.155118177092878 0.1017959248439588 0 0 0 956:1 1718:1 1841:1 2165:1 2716:1 
0 0 0 0 0 0.1537116822185328 0 0.0112652042525286 0 0 0 913:1 1826:1 2165:1 
0 0 0 0.02230262226777497 0 0 0 0 0 0 0.134779672642603 223:1 253:1 2922:1 2962:1 
0 0 0.2042956349053098 0 0 0 0.09813873482234511 0 0 0 0 102:1 135:1 1041:1 1210:1 1330:1 1386:1 1503:1 1750:1 1944:1 2659:1 2847:1 3015:1 
0 0 0 0 0 0 0 0.04806946818931465 0 0 0 135:1 1105:1 1130:1 1330:1 1375:1 1380:1 1750:1 1944:1 2080:1 2659:2 2687:1 2909:1 
0.2815776728749111 0.2294491693971027 0.04234976381109951 0.07392009152040577 0.119955224277079 1 0 0.2105924906586865 0.4169692538116477 0.07866572301387566 0.1275921751581851 135:1 143:1 192:1 481:1 595:1 665:1 1161:2 
0 0 0 0 0 1 0.1155111407391963 0 0 0 0 102:1 891:1 1380:1 1661:1 1770:1 1780:1 1944:1 1968:1 2476:1 2659:1 2835:1 2984:1 
0.0679353473429446 0 0 0 0 0 0 0 0 0 0 45:1 87:1 2867:1 2962:1 
0 0.2324361987710246 0 0 0 0 0.07463952026287325 0 0 0 0 407:1 1138:1 1944:1 2659:1 2977:1 3009:1 3025:1 
0 0.2000258306798519 0 0 0 0 0.9801279201659333 0 0 0 0.8865867638108671 1138:1 1241:1 
0 0.3483003381295338 0.01626464590000554 0 0 0 0 0.009126393478866927 0.07165738915752409 0 0 1146:1 1290:1 1380:1 1386:2 1416:1 1741:1 1999:1 2687:1 2700:1 
0.03056019204415392 0.08747586104178308 0 0 0 0 0 0 0 0.01287427772187259 0 96:1 102:1 282:1 1330:1 1380:1 1573:1 1715:1 1762:1 1782:1 2166:1 2283:1 2634:1 2637:1 2922:1 3022:1 
0 0 0 0 0 0 0 0 0 0 0.002657883291151477 181:1 934:1 1161:1 1693:1 1711:1 1715:1 1943:1 2524:1 2659:1 2816:1 
0.07126670463576049 0.1214368489628239 0.02327092319305627 0 0.0164012256968766 0.02017086465706118 0 0 0.04677571630683901 0.01271894674575627 0.01068209411965667 998:1 1041:1 1411:1 1506:1 2174:1 2552:1 2661:1 
0.1311062844620038 0.1495223342689303 0.1299605199593402 0.01727104883321918 0.001166469668789668 0.03267710672075158 0.0345890879051243 0.09094634644970122 0 0.06267631656882776 0 1000:1 1153:1 1330:1 1380:1 1398:1 1647:1 2637:1 
0 0.005928788933517169 0 0 0 0 0.02158945901540515 0 0.003732999371353378 0 0 84:1 192:1 728:1 731:1 1000:1 1386:1 1397:1 1589:1 1647:1 1811:1 2166:1 2687:2 2867:1 2907:1 3025:1 
0 0 0 0 0 0 0 0 0 0 0.004144204178766703 250:1 493:1 681:1 1866:1 2637:1 2687:1 2734:1 3000:1 
0.01201650345516046 0 0 0 0 0 0 0 0 0 0.06196119691676243 976:1 1330:1 1569:1 1693:1 1762:1 1782:1 1945:1 
0 0.001309456061265081 0 0.02985279512643468 0 0 0 0.1105193408270406 0 0 0.04144598519260743 172:1 253:1 281:1 493:1 1386:1 1487:1 1666:1 2166:1 2343:1 2634:1 2637:1 2645:1 
0.0239249555054682 0.2578333345615336 0 0.02466769974658877 0 0.03210490316637876 0 0 0 0 0.09734676489225977 1161:1 1407:1 1711:1 
0.07327812501885358 1 1 0.02319774767909979 0.02604321355536554 0 0.06252527375770361 0.1828906705931027 0.0966570048588308 0.03202951414699034 0.06734583283773479 246:1 634:1 1146:1 1334:1 1380:1 1718:1 1762:1 1940:2 1944:1 2303:1 2383:1 2637:1 2650:1 2659:1 2977:1 
0.5145137123073011 0.9369091650027633 0.1954079841004945 0 0 0.03150571814048624 0.2946553682655106 0.06325360632768756 0.1704216243900977 0 0.1172680827749364 23:1 1041:1 1594:1 1723:1 1940:1 
1 0.04233294756611811 0.07230223365353244 0 0 0.01765231229661891 0 1 0 0.05608686569366401 0.005245170072123247 385:1 398:1 489:1 505:1 515:1 667:1 769:1 1032:1 1052:1 1195:1 1330:1 1666:1 1762:1 1766:1 1944:1 2207:1 2527:1 2531:1 2630:1 2634:1 2637:2 2645:1 2646:1 2659:1 2700:1 2773:1 2792:1 2906:1 2909:1 2977:1 3025:1 
0 0.0425313884379772 0 0 0 0 0.0559376193236375 0.005964336152424039 0 0 0 188:1 1426:1 1944:1 2311:1 2659:1 
0.07521980512083248 0.4108738347566913 0.005986242853997729 0 0 0 0.4019869315425023 0 0 0 0 443:1 736:1 768:1 901:1 1041:1 1111:1 1138:1 1217:1 1241:1 1311:1 1326:1 1380:1 1386:2 1704:1 1741:1 1878:1 2405:1 2573:1 2637:1 2687:2 2814:1 3025:1 
0.2046631942871736 0.3979210762369347 0.2019303002523879 0.2081975500803456 0 0 0 0.3076822783174794 0.2643658294514962 0.01626888857529606 0 385:1 508:1 880:1 1146:1 1741:1 2405:1 
0 0.0315338055418909 0 0 0.02123077878030927 1 0.0287213921960582 0.2973682002590895 0.59682665835436 0 0 1380:1 1741:1 1944:1 2019:1 2637:1 2659:1 3000:1 
0 0.3074189232895874 0 0.04454350453335121 0 0 0 0 0.1288256147912006 0 0 23:1 1533:1 1940:1 
0.07442368261839696 0 0 0 0 0 0.3844555484146509 0 0 0 0 902:1 1261:1 1386:1 2463:1 2637:1 2679:1 
0 0 0 0 0 0 0.4605312008957708 0.08504664912706783 0 0 0 116:1 1380:1 1959:1 2463:1 2557:1 2659:1 2682:1 2963:1 
0.01457299622069602 0 0.06237137126086904 5.069097960423245e-05 0 1 0 0.1221018620725402 0.027705987683668 0 0 385:1 1261:1 1386:1 1501:1 1668:1 1780:1 2020:1 2097:1 2463:1 2543:1 2637:1 
0 0.09084312844724894 0 0 0 0.00036967504085778 0 0 0 0.07524892218751469 0 1251:1 2112:1 3001:1 
0 0.03639535175034792 0.001794230153060974 0 0 0.02809075027636818 0 0.3651931046199947 0 0 0 135:1 875:1 1127:1 1386:1 2746:1 
0.1971566418664176 0.2014506316116752 0 0.0277976238069359 0.03975669127701293 0.02489216515527269 0 1 0.2814728969104489 0.01278052324451351 0.07188445158748562 135:1 195:1 304:1 902:1 1161:1 3000:1 
0.6882695744392815 0.3476957881120615 0.3121333885740913 0 0.01631520727855651 0.120580788707992 0.2169520773734973 0 0.2972131563966266 0 0.06974793074765008 183:1 403:1 1041:1 1666:1 2943:1 3025:1 
0.04637906392869006 0 0 0 0 0 0 0.04887627841808021 0 0 0 42:1 905:1 2165:1 2446:1 2659:1 2909:1 
0 0.06941213944329484 0 0 0 0.007803284287254631 0.2526490191447716 0 0.04849019804751575 0 0.005135528746065562 1041:1 1693:1 1717:1 2262:1 2814:1 2867:1 
0 0 0.0666979135524737 0.02336195298044369 0.01294108717987179 0.006521220383099275 0.1612023469513121 0.02870882793717728 0.2528504489253176 0 0 135:1 454:1 681:1 1041:1 1146:1 1380:1 1386:1 2400:1 2463:1 
0.001976902450187203 0.06347415904319796 0.03747013039316963 0.01264974477184567 0.0226102463247938 0 0.05094031274494451 0.04439737125385735 0.01053227870667305 0.008059601291323671 0.0006012320518220204 181:1 223:1 267:1 282:1 403:1 439:1 493:1 683:1 1041:1 1210:1 1256:1 1330:1 1449:1 1458:1 1459:1 1544:1 1720:1 1762:1 2170:1 2265:1 2416:1 2517:1 2634:1 2637:3 2977:1 3014:1 
0 0 0 0 0 0 0.1804023285983287 0 0 0 0 403:1 1138:1 1944:1 2659:1 2977:1 3009:1 3025:1 
0.1050318003859402 0.1667553357466782 0 0 0 0.0138949675826871 0.2295902844124367 0.0379370840049193 0 0.05766188669982527 0.05059907096215362 499:1 1080:1 1161:1 1380:1 1693:1 1771:1 1944:1 2529:1 2581:1 2634:1 2700:1 
0.2862480126381461 0.1878770094870353 0.02955564596227072 0 0 0.01124435358422904 0.03785023214906968 0.1528451374338274 0.04800746920749392 0 0 407:1 833:1 1315:1 1741:1 1817:1 2230:1 2645:1 2687:1 3025:1 
0.2053765395015084 0 0 0 0 0 0 0 0 0 0 223:1 270:1 444:1 1386:1 2647:1 2687:1 2909:1 2943:1 2976:1 3001:1 
0.1941575271510735 0.06030444562787944 0.07804042714637374 0 0 0.05279844823246976 0 0.05479401916187183 0.01821727167692249 0 0.06457120687759525 1959:1 2551:1 2909:1 
0.05368270003502731 0.3543692155455829 0.001666079887439694 0.0227364433266214 0.04560985823830325 0.02753573685222073 0.1617055072759669 0.06868783519667486 0.03556952674474231 0 0.1622172909533018 116:1 135:1 192:1 834:1 1122:1 1146:1 1217:1 1288:1 1386:1 2325:1 2681:1 
0.07945900328084278 0 0 0 0 0 0 0.01953483761012094 0 0 0 478:1 999:1 2134:1 2165:1 
1 0.05311495319031529 0 0 0 0 0.04458788446720009 0 0 0 0.0240588966969843 253:1 704:1 787:1 1567:1 2352:1 2621:2 2687:1 
0.05730165632161201 0.136978821393237 0 0 0 0 0.05194654738212575 0 0.005154303784429704 0 0 950:1 1713:1 1960:1 2687:1 
0 0 0.03176985682409109 0 0 0 0 0.01766826177841141 0.02257121728584785 0 0 135:1 267:1 294:1 665:1 778:1 1386:1 1715:1 1741:1 2634:2 2645:1 3022:1 
0 0 0 0 0 0 0.1083617420822287 0.05289339480611616 0 0 0 385:1 1146:1 1380:1 1386:1 1744:1 2079:1 2165:1 2446:1 
0 1 0 0 0 0 0.6020475762783801 0.2204052088916832 0 0 0 961:1 1944:1 
0.04561027194691478 0.295085468655169 0.04603428369952501 0 0 0 0.01907586733812677 0.1498192652706404 0 0 0.03381738664016461 1958:1 2554:1 
0 0.293322284458161 0 0 0 0 0 0.04332625068938505 0.04797130024659792 0 0 305:1 424:1 833:1 1150:1 1161:1 1380:1 1417:1 1544:1 1944:1 2517:1 2687:2 
0 0.9322700857946696 0 0 0 0 0 0 0 0 0 1386:1 2112:1 
2.228574160086615e-05 0.1165234316924567 0.00852214909108606 0.03101689509437891 0.07984423347103932 0.0481101509765209 0.007884043864174477 0.05342063466578854 0 0.03768320743584384 0.09698741173895713 43:1 102:1 135:1 192:1 267:2 354:1 743:1 774:1 1041:1 1217:2 1229:1 1713:1 1747:1 1762:1 1825:1 2637:2 3015:1 
0 0.2740712388647405 0 0 0 0.442490348858916 0.3457515502482414 0.6485191183744382 0 0 0 1161:1 1944:1 2943:1 
0.1858675790456684 0.4344280361446398 0.02997095270259236 0 0 1 0.027599323863652 0.1330362485383591 0.6255025076706735 0.1130870668362602 0 385:1 930:1 1380:1 1386:1 1661:1 2637:1 2934:1 3000:1 
0.07553356110933859 0 0 0 0.02743332472726445 0 0.1053705806181972 0.1095075011945769 0.05307785370196637 0.02384295984592519 0 135:1 403:1 592:1 806:1 1000:1 1161:1 1311:1 1382:1 1387:1 1569:1 1762:1 1763:1 2165:1 2297:1 2637:1 2687:2 2854:1 3025:1 
0 0.09557713505153925 0.01925654642157462 0 0 0.1388807653678965 0.08223594729112579 0.08646682087729031 0 0 0.05202115878958064 1488:1 1944:1 2097:1 2659:1 
0 0.8632196112337035 0.1822551300685453 0.002516074134163358 0 0.01585106472026904 0 0 0.05253012707655388 0.0672352194561293 0 282:1 493:1 531:1 1035:1 1330:1 1380:1 1762:1 1782:1 1945:1 2637:2 2659:1 
0 0.2045723953203406 0.2114615738506431 0.01995374144278758 0 0.08990591485311256 0.2014441329313173 0.1140553817140375 0.2194909437032074 0 0 135:1 253:1 403:1 833:1 1207:1 1386:1 2423:1 3025:1 
0.09988128425304804 0.317246493654522 0.03689856571395921 0.04666856694852816 0 0 0 0.3855891044136862 0.1153945104923318 0 0.06358150852488977 135:1 1161:1 1386:1 2106:1 2529:1 2634:1 2665:1 2731:1 2909:1 
0 0.3777180775450476 1 0 0 0.007244754785392883 0.01683519110612472 0.1011131230639012 0.9833323578713821 0 0.01161998483390658 135:1 681:1 911:1 927:1 1035:1 1041:1 1111:1 1501:1 1526:1 1661:1 1693:1 1762:1 1944:1 2552:1 2659:1 3025:1 3027:1 
0.03676200502443206 0.1334400037641845 0 0.005962059895888773 0.0004732419009076406 0 0.05021898930058189 0 0.01207946698098299 0 0.006486160929765596 87:1 117:2 135:1 1217:1 1311:1 1330:2 1489:1 1670:1 1711:1 1959:1 2265:1 2507:1 2551:1 2634:1 2637:1 2687:1 2962:1 
0.09575630795014707 0.05913012628796093 0.00452118467510443 0.03980789866025372 0.07884255186782804 0.001435890728418423 1 0.1954706801415872 0.0236157236186523 0 0.2126132165935394 603:1 736:1 804:1 1041:1 1161:1 1522:1 1762:1 1799:1 2067:1 2463:1 2952:1 
0.3569244727882372 0.2832700590401359 0 0 0.03595554036079122 0 0.08225193134164904 0 0.03393239152806594 0 0.01669222914056351 1328:1 1474:1 2630:1 2922:1 2937:1 
0 0.4277632726954582 0 0 0 0 0 0 0 0 0 87:1 1138:1 1741:1 2030:1 3001:1 
0.01389048405265565 0 0 0 0 0 0 0 0 0 0 316:1 777:1 1571:1 1642:1 1717:1 1780:1 2687:1 2734:1 3027:1 
0.05767577802499921 0.06629812723086331 0.0001879553757804419 0 0 0.03943093580687491 0.1226900195884622 0.08171365498580624 0.0707869687195453 0.004832587162314265 0.06949591502654033 316:1 1041:1 1535:1 2633:1 2734:1 
0.1703260187547523 0.4592585778944315 0.1637388523537802 0.08529680289807876 0.04299237244073515 0.001584407060792937 0.1082149966820235 0.1394953923344667 0.227957314615737 0.02340440983017308 0.01345863300277276 942:1 1146:1 1380:1 2429:1 
0 0.5211446560991705 0.02994704553198661 0 0 0.008104588234263429 0.1989188317320947 0 0.0352991838198919 0 0 597:1 1666:1 2901:1 2943:1 3025:1 
0.03437489230918658 0.4469907092086557 0.05444481034680979 0 0 0.08555139796866641 0.2325764702551093 0.05948788890153792 0.1670801391113393 0 0 736:1 1041:1 1386:1 2110:1 3002:1 
0.03699217266360297 0 0 0 0 0 0.0870514221903053 0.0306130930091248 0 0 0.005201717645074771 9:1 135:1 267:1 285:1 1113:1 1217:1 1386:1 1422:1 1883:1 2030:1 2079:1 2637:1 2681:1 2687:1 3015:1 
0 0.1682916388589306 0 0 0 0 0.05815571767577585 0 0.05606858237001459 0 0 102:1 135:1 403:1 777:2 875:1 1041:1 1111:1 1138:1 1380:1 1386:2 1417:1 1781:1 2265:1 2634:2 2647:1 2663:1 
0 0 0 0 0 0 0.1312305607696831 0.2330512578061647 0 0 0.0006613255926541822 135:1 1533:1 1693:1 1944:1 2208:1 2659:1 
0.1151053404908802 0.2572515286620752 0 0 0 1 0.08616496367772192 0.08481916619403787 0 0.0218751226735884 0 223:1 297:1 860:1 1040:1 1138:1 1380:1 2418:1 2637:1 2801:1 2981:1 
0 0.1715439588346805 0 0 0 0 0 0 0 0 0 87:1 135:1 1138:1 1386:1 1534:1 3001:1 
0.1503907253160418 0 0.09344567614161953 0.00445903878048044 0 0 0.08182922943637817 0.2861456717738889 0.03787370335242375 0.02273959340342393 0 135:1 294:1 833:1 994:1 1161:1 1380:1 1944:1 2504:1 2687:1 2988:1 3027:1 
0.1983324661613209 0.02119680956775005 0.1359287216739614 0.02859831109237278 0.0800614189659994 0.05262523382870801 0.1673555115286967 0.2088201917293356 0.1610176404893666 1 0.01960259756192421 166:1 385:1 681:1 777:1 1086:1 1311:1 1330:1 1391:1 1501:1 1502:1 1711:1 1762:1 1817:1 2637:3 2734:1 2921:1 2951:1 3000:1 3025:2 
0.03454477517714547 1 0 0.01083402807450458 0.01188262296408797 0.06689204508975551 0.1576345104570316 0 1 0.05904607776406991 0 108:1 135:1 1009:1 1086:1 1421:1 1565:1 1762:1 2017:1 2058:1 2174:1 2825:1 2867:1 2962:1 
0.06986580932737489 0.3931349254956685 0.1915180782724407 0 0 0 0 0 0 0 0 1723:1 2633:1 
0 0.002475784822063972 0.004862733078782087 0 0 0 0.07140279260947081 0.03857276586174764 0 0 0 296:1 989:1 1380:2 1664:1 1777:1 1786:1 1919:1 1944:1 2061:1 2293:1 2659:1 2953:1 
0.05793756587189025 0 0 0 0 0 0 0 0 0 0 1469:1 1713:1 2174:1 2687:1 2922:1 
0.08280544111142514 0 0 0.01878951193818581 0.003471470119063708 0 0.06104208466329676 0.1056966704109604 0.01493991566775918 0.009881394438687113 0.008380409863971757 85:1 135:1 168:1 876:1 1058:1 1125:1 1287:1 1693:1 1762:1 1780:1 2454:1 2543:1 2645:1 2669:1 2687:1 2936:1 2977:1 
0 0.168179719291572 0 0.04791150604471196 0 0.01278133124502857 0 0.1160445211210129 0 0 0.0321041163005218 1228:1 2112:1 
0 0.8327385725043286 0 0 0 0 0 0 0 0 0 1386:1 1533:1 
0.09726411234607575 0.1398473414765882 0 0.0236576652662411 0 0.004822824378200399 0.1201133547887777 0.01488250408487601 0.01328962592831775 0 0.08098018678153808 181:1 389:1 1717:1 1780:1 1947:1 2509:1 2927:1 2934:1 
0.006307963701178226 0.2476085270251187 0.02506926022380006 0 0 0 0.3804324660391729 0.01600065514317892 0 0 0.03214603536867876 457:1 679:1 1386:1 1817:1 
0 0 0 0 0 0 0 0.01413677171681797 0 0 0 217:1 312:1 389:1 962:1 976:1 1594:1 1693:1 1715:1 1780:1 1944:1 2165:1 2353:1 2637:1 2659:1 2818:1 
0.1148905648813155 1 0.09443015731921675 0.03784348950663805 0.01315684946468933 0.05365448465830505 0 0.1284792424403149 0 0.02997900713957617 0.05354886413388502 135:1 223:1 253:1 681:1 710:1 961:1 1144:1 1687:1 2405:1 2428:1 2637:2 2687:1 2856:1 2909:1 2937:1 
0 0 0 0 0 0 0 0.005867651570999456 0 0 0 1533:1 1944:1 2659:1 
0.07602802769526602 0 0 0 8.229201708835898e-05 6.493286811015686e-16 0 6.433988006493931e-05 0.0002050170594401773 0 0.0001428345067071307 1146:1 1185:1 1421:1 2637:1 2814:1 2993:1 
0 0.1010598731954538 0 0.04519640425887408 0.00271503963794284 0 0 0.03536043432523572 0 0 0.05806705899451656 98:1 718:1 1445:1 1533:1 
0 0 0 0 0 0 0.1896229636586819 0.00211199421468765 0 0 0 903:1 1944:1 2112:1 2659:1 2687:1 
0 0 0 0 0 0 0 0 0 0 0.01947388297387201 361:1 976:1 1330:1 1693:1 1762:1 1782:1 1945:1 
0.08095711324184648 0.07208394001387351 0.08045054747813322 0 0 0.06177684304654033 0 0.2964670423176417 0 0.008613305225356999 0 649:1 1041:1 1144:1 1210:1 1386:1 1526:1 2165:1 2637:1 
0.09294255780486545 0.1284685344421506 0 0 0 0 0.01553066239272241 0.09726416914261028 0.02805961489355838 0 0.08622117808077583 777:1 2225:1 2891:1 
0 0.1402330840379978 0.1621139184904007 0 0 0 0 0.2044172534213439 0 0 0 172:1 836:1 1093:1 1188:1 1330:2 1487:1 1668:1 2637:1 2645:2 2922:2 2937:1 
0.1187286236739896 0 0.08993019466456711 0 0 0.005211148279812829 0 0 0 0 0 529:1 1041:1 1217:1 1241:1 1330:1 1386:1 1445:1 2552:1 2647:1 2962:1 2976:1 
0 1 0 0.01479805200786411 0 0 0 0 0 0 0 1386:1 1533:1 
0.5777769652941873 0.8112583889378341 0.2833428699631807 0.2611144020367072 0 0.8133154270037698 0 0.7868773393243376 0.1625972589969128 0.09278904287771392 0 1718:1 2856:2 
0 0.1187773110102337 0.087010762482487 0 0 0 0.1272243558074629 0 0 1 0 102:1 217:1 304:1 385:1 1111:1 1245:1 1380:1 1386:2 1781:1 1944:1 2637:1 2645:1 3000:1 3025:1 
1 1 0.3868790394280902 0.1155428743910335 0.1699928699081359 0.6474371506061969 0.5186195816511624 0.5658015244400506 0.8415632082436526 0.2737972371472414 0 1035:1 1380:1 1741:1 1786:1 2637:1 
0 0 0.03699171859082911 0 0 0 0.3304035485964925 0 0 0 0 1188:1 1718:1 2679:1 2856:1 2922:1 
0 0.5115073112534591 0 0 0 0 0 0 0 0 0 1251:1 2114:1 
0 0.09240618472725728 0 0 0 0 0 0.02777940466896545 0 0 0.05665485272315285 135:1 267:1 1008:1 1086:1 1217:1 1299:1 1693:1 1780:1 2413:1 2637:1 2659:1 2867:1 
0.1768444953960179 0.1600479099164306 0.06782736017577966 0 0.04618930698689648 0.02197558754357635 0.1853416434086244 0.08826514937881971 0 0.04648136032886313 0.0155641221140012 166:1 1710:1 1723:1 1762:1 2443:1 2645:1 2687:1 
0.5477308396735733 0.9878192575121599 0.376424712781105 0.1095502648488079 0.0440336923105603 0.2872766969171706 0.09890270719511596 0.4780964030920129 0 0.1755828591281908 0.4162490047453631 283:1 2637:1 
0 0.1335879309155865 0 0 0 0 0.1903869094942704 0 0 0 0 976:1 1514:1 1693:1 1944:1 
0.04003862797032084 0.4359089326161262 0.11344267137 0 0 0.003378079613058544 0 0.2872227443802015 0.2575826694528532 0 0.0519467913106486 112:1 1391:1 
0.01031619288399997 0.001641066703849225 0 0 0 0.9821366103624902 0.1238620111222734 0.07434153510461847 0 0 0 42:1 385:1 959:1 1041:1 1093:1 1314:1 1386:1 1538:1 1705:1 1741:1 1937:1 1944:1 2659:1 2679:1 2909:1 
0 0.08648166370711324 0 0 0 0 0 0.05758264343545205 0 0 0 1013:1 1093:1 1138:1 1391:1 1417:1 1741:1 1944:1 2164:1 2479:1 2687:1 
0.004181983930956035 0.4925177497554112 0.1746557959486315 0 0.2064083951992742 0 0 0 0.3097794751420575 0 0.05248615379710279 213:1 278:1 2921:1 
0 0 0 0 0 0 0 0.094196553115044 0 0 0 1533:1 1944:1 2659:1 
0.2257691696188382 0.1763563460834919 0.2809745640923475 0 0 0.3645740865853094 0 1 0 0.08453026620913841 0 135:1 501:1 1718:1 2165:1 2637:1 2665:1 2909:1 
0 0.008689881968708468 0 0.02145020280630754 0.01284233611666115 0 0.4190291724517939 0.08924603370411305 0.04517589253272136 0 0.1130296936233904 223:1 253:1 1041:1 1506:1 2552:1 
0 0 0 0 0 0 0.09076334669755612 0 0 0 0 361:1 1330:1 1780:1 1944:1 2396:1 2515:1 2999:1 
0 0.06504259320304551 0 0 0 0 0.2380155181695867 0.03723413088203163 0 0 0 144:1 424:1 736:1 898:1 1041:1 1713:1 1944:1 2112:1 2659:1 2687:1 3001:1 
0.004600354596548694 0.7865407299967474 0.006068610334059732 0 0 0.000884919334987555 0.0147114810109053 0.003825568528048828 0.002437325598631764 0 0.0009249778341102965 219:1 
0.07717813158482266 0.111216720201346 0.1915607454651646 0 0 0.0275432191063468 0 0.1541476574089713 0.03276910470712645 0.006857531917937154 0.01067331935265805 18:1 135:1 743:1 1241:1 1780:1 2252:1 2909:1 2936:1 
1 1 0.03923448162844215 0.03548097139899102 0 0.1655332291299579 0 0.2996369167475801 0.157482713972387 0 0.2191242753568312 181:2 760:1 913:1 1035:1 1058:1 1290:1 1469:1 2287:1 2317:1 2637:2 2856:1 2909:1 2934:1 
0.1456364821144902 1 0.1470418651226323 0.01973929964638385 0.007532978802548127 0 0.07809826804673781 0.05538779396327894 0.04430644056520545 0.01127522700355318 0.06476638459421584 135:1 793:1 1138:1 1417:1 1801:1 2115:1 2202:1 2637:1 2687:1 3012:1 
0.6937460822332304 1 0.3879311161704244 0.07451438791666652 0.04946008163094807 0.2639597814560344 0.1285684414172545 1 0.01392742004237379 0 0.1441365186933188 1146:1 2405:1 
0 0 0.1063135747982309 0.02567470476517351 0 0.006520601259361817 0.1039319140766451 0.06811740629120384 0 0 0.001781341338739515 403:1 664:1 833:1 902:1 1241:1 1514:1 1533:1 1762:1 1944:1 2097:1 2637:1 2659:1 2927:1 
0.03882874686869998 0 0 0.01020916234493141 0.02405228829153014 0 0.04678811100602032 0.2114665697705586 0 0.007401709460262535 0 135:2 860:1 1138:1 1661:1 2259:1 2423:1 2679:1 3027:2 
0 0.1413992645491567 0.003977599298875266 0 0 0.0132907015839887 0 0.1361325665323541 0 0 0 135:1 225:1 389:1 821:1 987:1 1289:1 1386:1 1417:1 1676:1 1693:1 1713:1 1772:1 1944:1 2180:1 2405:1 2466:1 2637:1 2659:1 2687:1 2909:3 2992:1 3007:1 
0.03630969062850185 1 0 0.00728214515192005 0 0 0.9146266407128948 0.8808661227728873 0 0 0 102:1 135:1 435:1 872:1 976:1 1035:1 1161:1 1241:1 1380:2 1386:1 1693:3 1762:1 1782:1 1807:1 2133:1 2463:1 2637:2 2659:1 2681:1 2856:2 2909:1 2925:1 2934:1 
0 0 0 0 0 0 0 0.3492653017333244 0 0 0 259:1 1251:1 1944:1 2112:1 2659:1 
0.05003056893310427 0 0.210476135196081 0.05174027907591513 0.02985169228587804 0 0 0.1926884933358848 0.07536984851503899 0 0.02054565931416315 528:1 875:1 1241:1 1299:1 1680:1 2856:1 2977:1 
0.8730996916115041 1 1 0.09422622330286495 0.01849111176334008 0.2490951346018792 0 0.4071400280534638 0.07193345661339827 0 0.4156761361169239 282:1 2637:1 
1 1 0 0 0 0.09113930117368198 0 0.1796788643378301 0 0 0 60:1 121:1 497:1 1035:1 1161:1 1380:1 1944:1 2317:1 2659:1 
0 0 0 0 0 0 0 0.00833230445700817 0 0 0 1380:1 1689:1 1944:1 2659:1 2867:1 
0.2092904906034762 0.06409255686166405 0.041235587603222 0 0.09221814261847822 0.0452347284473114 0.06852215179919902 0 0.1119655185511998 0.01340764979402436 0.01684123867416997 192:1 843:1 903:1 2631:1 2918:1 3025:1 
0.1944688395817163 0.3969506192576611 0.08952727923127446 0.01885333877273019 0 1 0.01090192991397082 0.141156061806797 0 0.03498068619403569 0.1060046875995273 11:1 787:1 2637:1 2692:1 
0 1 0 0.1096570904427829 0.07001510046825397 0 0.2123256966292841 0 0.1108103260691714 0 1 931:1 1146:1 
1 0 0.03551644445730296 0 0 0 0 1 0 0.006589058698038123 0 102:2 181:1 202:1 259:1 385:1 713:1 1099:1 1274:1 1330:2 1386:1 1501:1 1666:1 1903:1 2165:1 2174:1 2472:1 2637:3 2687:1 2909:1 3001:1 
0 0 0 0 0 0 0 0 0.01815067119342546 0 0 194:1 385:1 737:1 931:1 1161:1 1380:1 1386:1 1741:1 1781:1 2029:1 2174:1 2687:1 2746:1 2962:1 
0 0.3487536654698123 0 0 0 0.02650332557018828 0 0 0 0 0 1328:1 
0 1 0.1046150795759002 0 0 0 0.1565498182794511 0.0355211180299791 0 0.009734988963561281 0 91:1 102:1 121:1 135:1 457:1 768:1 772:1 975:1 1041:1 1093:1 1285:1 1536:1 1762:1 1817:1 1944:1 1960:1 2659:1 3029:1 
0 0.4986407380983733 0 0 0 0 0 0 0 0 0 282:1 735:1 931:1 1330:1 2637:1 2861:1 2940:1 
0.02693649736076195 0.118822515011037 0 0 0 0.003034070287107252 0 0 0 0 0 143:1 419:1 931:1 988:1 1330:1 1374:1 1445:1 1458:1 1715:1 1720:1 1811:1 2495:1 2741:1 2802:1 2909:1 3022:1 
1 1 0.269540891816238 0.01359081264544063 0 0.0326905385452845 0 1 0.08842206424992721 0.1214891269022409 0.2029357987180619 671:1 1035:1 1086:1 1161:1 1188:1 1251:1 1281:1 1328:1 1720:1 2637:4 2687:3 
0.004075376760037944 0 0 0 0 0 0 0 0 0 0 385:1 535:1 675:1 1380:1 1713:1 1780:1 2165:1 2367:1 2646:1 2659:1 3000:1 3007:1 
0.02229215291183156 0 0 0.05285717629099192 0.0108718803035123 0.08731152566096614 0 0 0 0.0343078451300918 0.0680718878430113 1000:1 1161:1 1330:1 2637:1 2861:1 2940:1 
0.7713560554274297 0.221740553105459 0.3698308124291235 0.03740976754395403 0 0 0 0 0.04113150610818397 0 0 768:1 1741:1 2112:1 
0.08646269882019757 0.7045890454067369 0 0.1145025467950479 0.03208398167507474 1 0 0.4074834487568274 0.3597079329601351 0 0.2128929628667152 1161:2 1944:1 2835:1 
0.2736686378722196 1 0.08594919394903588 0 0 0.0584045180847859 0.3348175163572373 0.1194916971409659 0.00808216076794438 0 0.1225274846295819 219:1 
0.1140257943822378 0 0 0.01673307368763109 0 1 0.1586111948987006 0 0.2835384222996107 0 0.01957539968249161 1161:1 1348:1 2679:1 2772:1 
0 1 0 0 0 0 0 0 0 0 0 1386:1 2746:1 
0.1741226933731815 0.5968606367531686 0 0.038979171875276 0 0.1185590738636109 0.00866500289749848 0 0.1270227989872961 0 0 1961:1 2856:1 
-0 0.03983189527209337 0.02546816149109463 0 0 0 0.03622205057635788 0.04221815728496862 0 0.02234483265753065 0 135:1 364:1 554:1 753:1 1041:1 1313:1 1713:1 1734:1 1780:1 1815:1 2145:1 2154:1 2536:1 2573:1 2637:1 2647:1 2670:1 2825:1 
-0 0 0.03043049018121246 0 0 0 0.0670173258817762 0.06764477882129862 0 0 0.01446199647070426 42:1 84:1 102:1 547:1 1594:1 2391:1 2634:1 2637:1 2647:1 2683:1 2687:1 
-0.0530259537728241 0.09964252391383176 0.1017427285064444 0.01159380954671308 0.01919621252327875 0.04808290426517618 0.1074792860497837 0.06863595060131372 0.09302204823472068 0.04234400074034111 0.01498926358997807 135:2 184:1 200:1 217:1 223:1 417:1 1041:1 1393:1 1417:1 1464:1 1528:1 2146:1 2184:2 2334:1 2892:1 3005:1 
-0.2032784506359547 0.1014507771277761 0 0 0 0 0.003525547738769488 0.05913264242613957 0 0.007219129222227073 0.04261922407179459 183:1 223:1 270:1 402:1 752:1 999:1 1188:1 1238:1 1393:1 2152:1 2334:1 2637:1 2669:1 2681:1 2687:1 2977:1 
-0 0.8996910026390671 0 0 0 0.9634796772421977 0 0 0.006320142530695829 0 0 135:1 181:1 253:1 255:1 403:1 528:1 714:1 1845:1 2017:1 2308:1 2317:1 2637:1 2647:1 2909:1 2950:1 
-0 0.8471981347701576 0 0 0 0 0 1 0 0 0 116:1 135:1 585:1 587:1 671:1 905:1 913:1 1380:2 1917:1 2317:1 2637:2 2687:1 2786:1 
-0 0 0.03710359429027542 1 0 0 0 0 0 0 0.02196011396933132 385:2 936:1 1041:2 1220:1 1497:1 1498:1 1522:1 1550:1 2052:1 2151:1 2235:1 2640:1 2816:1 2825:1 2909:1 2911:1 2922:1 2937:1 2953:1 
-0.09261303039658839 0.03205711692207983 0 0 0 0 0 0.02412749875288232 0 0.0316934753895899 0 21:1 135:1 172:1 304:1 389:1 724:1 787:1 1073:1 1161:1 1188:1 1386:1 1780:1 2317:1 2405:1 2637:1 2643:1 2909:1 2922:1 2936:1 
-0 0.1687432236211898 0 0 0 0 0 0 0 0 0 225:1 1290:1 1330:1 1386:1 1467:1 1674:1 1693:1 2317:1 2596:1 2634:1 2637:1 
-0 0.004450582780757811 0 0.006409653371256837 0 0 0.009561656676792847 0.04273124463999668 0 0 0 109:1 185:1 225:1 304:1 457:1 982:1 1041:1 1143:1 1204:1 1217:1 1333:1 1373:1 1477:1 1487:1 1501:1 1563:1 1594:2 1741:1 1762:1 1799:1 1969:1 2159:1 2305:1 2634:1 2637:1 2687:1 2738:1 2883:1 2918:1 2953:1 2977:1 
-0 0.1212746796555108 0.07277807607386302 0 0.02232013013537652 0 0.05249821655557328 0.0531008028198418 0.001688178092170177 0.02026826477636277 0 90:1 135:2 333:1 384:1 385:1 541:1 833:1 875:1 931:1 1080:1 1241:1 1380:1 1436:1 1522:1 1693:1 1762:1 1763:1 1958:1 2296:1 2336:1 2347:1 2607:1 2637:1 2687:1 2700:1 2865:1 2937:1 3025:1 3027:1 
-0 1 0 0 0 0 0 0 0 0 0 135:1 1035:1 1319:1 2006:1 2317:1 2637:2 2909:1 2934:1 
-0.3544502349934411 1 0.2446494106987426 0 0.008566517716911901 0 0.3456344001350556 0.2622818490190182 0.1246000840189123 0.04597371692778018 0.02334031866323852 385:1 1035:1 1041:1 1146:1 1241:1 1311:1 1380:1 1386:1 1487:1 1786:1 2083:1 2637:1 2687:1 2881:1 3025:1 
-0.2830626112842424 0.2901355754662478 0.1854707233124644 0.02759746728799773 0 0.09126801236079497 0.08091788950799728 0.2154096081662048 0.1126125381041737 0.06302198559007643 0.1320072337970704 107:1 116:1 1290:1 1380:1 1434:1 2389:1 2637:1 
-0 1 0 0.02831111603908763 0.0979001603498435 0.1116371705634241 0 0 0.9793831819287856 0 0.07624336137378863 66:1 135:2 192:1 273:1 899:1 1035:1 1161:3 1217:1 1762:1 2017:1 2099:1 2317:1 2634:1 2637:1 2687:1 3025:1 3029:1 
-0 1 1 0 0 0 0.8984666427700344 0.02779342678181342 0.02389953771339275 0.0413446018534084 0.01717838316848259 102:2 135:1 166:1 898:1 1035:1 1397:1 1616:1 2358:1 2447:1 2637:3 2709:1 2889:1 
-0 1 1 0 0 0 0 1 0.03511422697596356 0.03932260506744539 0 135:2 530:1 671:1 686:1 913:1 1035:1 1161:1 1330:1 1380:3 1453:1 1982:1 2317:1 2637:3 
-0.1728566103984553 0.09065336378597755 0.06903029944990396 0 0 0 0.1199464241995642 0.121510015701426 0.01226530445159105 0 0 1666:1 1762:1 1780:1 1799:1 1874:1 2122:1 2288:1 2647:1 2687:1 2929:1 
-0.1328854008935109 0.3377319615148932 0.1317213518018714 0.03037013470722691 0.02079167239055984 0.02891420455577209 0.04527969373404968 0.2498946611114657 0 0.1189209353748365 0.06141470250216373 275:1 1283:1 1380:1 1762:1 1765:1 1967:1 2220:1 2637:2 2687:1 
-0.075244268056306 0.9916877873781174 0 0.06508622813610786 0 0 0 0.03766760700718953 0 0 1 116:1 135:2 267:1 1035:1 1161:1 1217:2 1572:1 1944:1 2317:1 2659:1 2681:1 2687:1 2922:1 2966:1 
-0.1632705433054171 0.04965319691448503 0 0 0 0 0 0 0 0 0.003369878561670452 385:1 1113:1 1217:2 1330:1 1566:1 2340:1 2417:1 2687:1 2740:1 2881:1 2922:2 2937:1 2998:1 3001:1 
-0 0 0.01737496859536342 0 0 0 0 0 0 0 0 116:1 166:2 1045:1 1079:1 1330:1 1715:1 1910:1 2405:1 2420:1 2634:1 2637:1 2645:1 2993:1 3022:1 3025:2 
-0.3288938939627574 0.4174087395594981 0.2632678784899613 0.05130126037143634 0.05708369802260915 0.0166147633156522 0.2390928680170203 0.1156793537826822 0.140984357015824 0.01536782918153822 0.1023696794416197 135:1 299:1 413:1 1041:1 1173:1 1188:1 1293:1 1693:1 1762:1 2582:1 2922:1 2934:1 2937:1 
-0 1 0 0 0 0.01270854928068387 0 0.04299628028235684 0.02418182021277208 0.03892567082051903 0 135:1 1035:1 1380:1 1891:1 1926:1 2637:2 2825:1 2856:1 2886:1 2909:1 2977:1 
-0.8169599563998512 1 0 0 0 0 0 0.03811678450443088 0.09523310753084807 0 0 135:1 961:1 1161:1 1940:1 2317:1 
-0.3647192154765373 0.2917676290313143 0.1299789506800489 0 0 0.05901748696340422 0 0.3303505928153426 0.1378818929001027 0.01432445667171165 0 385:1 928:1 2341:1 2391:1 2630:1 2645:1 2881:1 2909:1 
-0 0.0374269929378469 0 0 0.04858722440875524 0 0 0 0.02554782731743289 0 0 64:1 135:1 166:1 402:1 459:1 903:1 1130:1 1298:1 1380:1 1440:1 1487:1 1697:1 2647:1 2950:1 3025:1 3027:1 
-0 1 0 0 0 0 0 0 0 0 0 121:1 135:2 254:1 385:1 1035:1 1237:1 1741:1 1799:1 1825:1 2035:1 2229:1 2317:1 2637:2 2909:2 
-0.1696996114924599 0 0.01431131313813212 0 0 0.01555292344937124 1 1 0 0 0 135:2 1041:1 1251:1 1372:1 1386:2 1718:1 1756:1 2042:1 2112:1 2317:1 2322:1 2446:1 
-0.1606728007454577 0.08742415133781475 0 0 0 0 0.007469377898030666 0 0 0 0 84:1 898:1 1458:1 1594:1 1828:1 2637:1 2645:1 2647:1 2679:1 2909:1 
-0.02019234681356991 0.150957745485297 0.06207003167971605 0 0 0.06336900312914392 0.01086608797823902 0 0.002279683726442546 0 0.07373629661951236 135:1 664:1 1041:1 1560:1 1658:1 1671:1 1693:1 2014:1 2220:1 2637:1 2701:1 2909:1 
-0.09332712075342614 0.02227067838810656 0 0 0 0 0 0 0 0 0 135:1 148:1 1221:1 2158:1 2234:1 2252:1 2366:1 2573:1 2637:1 2687:1 2694:1 2825:1 2909:1 2922:1 2948:1 
-0.06706668002860063 0 0 0 0 0 0 0 0 0.01385368021871493 0 72:1 1039:1 1221:1 1486:1 1594:1 1693:1 1780:2 1825:1 2094:1 2292:1 2494:1 2637:1 2679:1 2687:1 
-0.0603178421424035 0 0 0.008848680905125621 0 0.08318359254543833 0 0 0.05187302030426458 0 0 294:1 385:1 665:1 910:1 1013:1 1380:1 1741:2 2097:1 2317:1 2479:1 2635:1 
-0.01516471136467622 0.006379890622286714 0 0 0 0 0 0.0350695410048863 0 0.006800503106617832 0 135:1 184:1 248:1 262:1 404:1 720:1 736:1 833:1 1374:1 1676:1 1723:1 1741:1 1780:1 1804:1 1815:2 1998:1 2368:1 2573:1 2637:3 2687:2 2692:1 2694:1 2886:1 2901:1 2922:3 2937:1 2948:1 
-0 0 0.00314560843269712 0 0 0 0 0.002577740286028406 0 0 0 135:1 150:1 344:1 501:1 512:1 720:1 808:1 1394:1 1469:1 1618:1 1693:1 1741:1 1763:1 1780:2 1799:1 2334:1 2359:1 2507:1 2634:1 2637:1 2643:1 2652:1 2687:2 2703:1 2827:1 2909:1 
-1 0.9355564764005054 0.4928474355337804 0.1131928697749831 0.04312801935788524 0.3387367343983885 0.3538506961270542 0.4902624396373639 0.3672945874687895 0.1116173166068346 0.3488752711476146 745:1 2534:1 
-1 0.983740105899876 0 0 0 0 0.001745453546189177 0 0 0 0 166:1 217:1 1035:1 1086:1 1330:1 1603:1 1750:1 1762:1 1782:1 2166:1 2220:1 2317:1 2487:1 2645:1 2659:1 2699:1 
-0.09566306111990451 0.1720717395417941 0 0 0 0 0 0.09075054990564992 0 0 0 135:1 1079:1 1237:1 1815:1 2314:1 2856:1 2909:1 
-0.06079664495688259 1 0 0 0 0.1861591068269927 0 0 0 0 0 1035:1 1161:2 2317:1 
-0 0.9550232829746381 0 0 0 0 0 0 0 0.05014155323739993 0 282:1 310:1 382:1 385:1 1380:1 1391:1 1762:1 1780:1 1931:1 2472:1 2637:2 2771:1 2832:1 2881:1 3027:1 
-0 1 1 0 0 0 0 0.04198140423399397 0 0 0 135:2 462:1 472:1 688:1 920:1 1293:1 1380:1 1931:1 1991:1 2033:1 2317:1 2637:3 2900:1 2904:1 
-0 0.05246551361806627 0 0 0 0 0 0 0 0.02519687568074007 0 1380:1 1723:1 1732:1 2472:1 2637:1 
-0 0.007447997995549059 0 0 0 0 0.03974443127885165 0 0 0 0 213:1 698:1 1086:1 1107:1 1111:1 1146:1 1380:1 1386:2 1417:1 1605:1 1775:1 1780:1 2317:1 2541:1 2687:2 2814:1 2842:1 2883:1 2953:1 3025:1 
-0.1131540763632628 0.3458807530978885 0.07397639199055885 0 0 0.04757154970788766 0.04088817373850035 0.2553797490568425 0 0.02847449923476906 0 116:1 769:1 899:1 994:1 1330:1 1380:1 2035:1 2165:1 2290:1 2637:2 2664:1 2814:1 
-0.06699564907493413 0 0 0 0 0 0.04124654140692505 0 0.01159087269640081 0 0 175:1 181:1 385:1 820:1 899:1 1330:1 1380:3 1547:1 1572:1 1741:1 1746:1 1771:1 1801:1 1811:1 1872:1 2031:1 2179:1 2389:1 2637:1 2659:1 2679:1 2687:1 2741:1 3027:1 
-0.01157284680803191 0.3987982604785767 0 0.04688730870955934 0.03606184517020147 0.03636043266064614 0 0.2029358516339476 0.09673242520261351 0 0.1806123033318031 135:2 587:1 804:1 1035:1 1815:1 2097:1 2313:1 2314:1 2393:1 2637:1 2825:1 2909:1 2977:1 
-0 1 0 0 0 0 0 0 0 0 0 135:2 192:1 241:1 391:1 687:1 1035:1 1082:1 1289:1 1689:1 1693:1 2265:1 2317:1 2471:1 2637:2 2659:1 2679:1 2909:2 
-0 1 0 0 0 0 0.01541706521735485 1 0 0.02466089963912 0 124:1 135:1 241:1 391:1 1035:1 1041:1 1251:1 2112:1 2317:1 2471:1 2637:1 2640:1 2984:1 
-0 0 0 0 0 0 0 0 0 0.03577912294753324 0 45:1 102:1 1380:1 2033:1 2472:1 2637:1 
-0 0.1282304024496095 1 0 0 0 0.2702739586312653 0.02795536865873402 0.1583734843433913 0.05575728790344818 0 385:1 768:1 2647:1 
-0.617225868272512 0.09817521473906056 0.1392754687106317 0.1045186387767282 0 0 0 0.2420522559380108 0.1526250760336763 0 0 385:1 403:1 768:1 902:1 1380:1 1689:1 1741:1 2165:1 2634:1 
-1 0.4105519606648378 0 0 0 0.06012331637211953 0 0.07956960620734076 0 0 0.08693229962266058 42:1 1146:1 1786:1 2165:1 2317:1 2637:2 2651:1 2659:1 2909:1 
-0 0 0 0 0 1 0 0 0 0 0 115:1 1380:2 1974:1 2017:1 2099:1 2317:1 2637:2 
-0 1 0 0 0 0.6576613826595893 0 0 0.1048845118989373 0 0 102:1 135:1 1035:1 1161:1 1217:1 1386:1 2017:1 2317:1 2647:1 
-0 0 0 0 0.008525214180223548 0 0 1 0.050273776730427 0 0.03638145833116005 135:1 166:1 172:1 181:2 197:1 403:1 774:1 969:1 1380:1 1499:1 1728:1 2637:2 2647:1 2652:1 2884:1 2893:1 
-0.3031738158864766 0.7257401342844843 0.3054714143815954 0.05173959660390462 0.0008026942659678473 0.1642040086105814 0.006350982035101385 0.286225274831573 0.3494081449952179 0.1437332136963212 0.01868701664328137 135:1 850:1 1035:1 1380:1 2006:1 2066:1 2637:1 
-0.1759015764391998 0.2534443878484186 0.03412680074512443 0.01062266164385675 0.01025151965898381 0.03924960134885091 0.01359592609232661 0.1934548025786176 0.05695654383992824 0.07653735370072975 0.06956762787853843 181:1 1127:1 1161:1 1248:1 1380:1 2058:1 2363:1 2583:1 2637:1 2647:1 2700:1 2749:1 2934:1 
-0 1 0.229274599556878 0.01333816259043707 0.06597886806669066 0 0.03987045071776657 0 0.1196649185281894 0 0 135:2 335:1 752:1 1041:1 1067:1 1796:1 1884:1 2313:1 2647:1 2680:1 2922:1 2937:1 
-0 1 0.0944157443336819 0 0 0.00998236487569729 0 1 0 0.02354428432595392 0 45:1 53:1 135:1 686:1 1035:1 1380:1 1535:1 1944:1 2472:1 2637:3 2909:2 
-0.1876006555389139 0.1734774875527206 0.03502964603225615 0 0 0 0.00298124285119762 0 0 0.02227050088189293 0.009251622650049253 878:1 898:1 1086:1 1188:1 1563:1 1568:1 1816:1 2552:1 2637:1 2687:1 2867:1 2902:1 2922:2 2937:1 2956:1 
-0 1 0 0 0 0 0 0 0.02492603581774516 0.02635773697278105 0.01183822453435863 135:1 1035:1 1111:1 1146:1 1775:1 2317:1 2420:1 
-0 1 0 0 0 0 0 0 0 0 0 135:2 225:3 1035:1 1111:2 1146:2 2317:2 2420:2 
-0 0.9550035782986187 0 0 0 0 0 0 0 0 0 135:2 225:3 1035:1 1111:2 1146:2 2317:2 2420:2 
-0.07167388490790506 0.1299863419495151 1 1 0.06483110370960882 0.04766587564487665 0.04666402674458303 1 0 0.03315697578057261 0.07938661126108228 135:1 197:1 303:1 383:1 753:1 850:1 1330:1 1380:1 1599:1 1944:1 2313:1 2361:1 2637:1 2953:1 2966:1 
-0 0 0 0 0 0 0 1 0 0 0 124:1 690:1 1320:1 1380:1 2317:1 
-0 0.115830137442894 0 0 0 0 0 1 0 0 0 113:1 124:1 135:1 1161:1 1276:1 1380:1 1741:1 2317:1 2634:1 2637:1 2909:1 
-0 1 0 0 0 0 0 0.08011723388207924 0 0 0 135:1 262:1 913:1 1008:1 1035:1 1041:1 1380:1 1693:1 2165:1 2177:1 2317:1 2637:1 2659:1 2679:1 2909:1 3008:1 
-0 1 0.1171341412161681 0 0 0.09681813840331011 0 1 0 0 0.9297787909061679 135:1 167:1 224:1 385:1 735:1 913:1 1550:1 1940:1 1944:1 2097:1 2317:1 2637:3 2659:1 2700:1 2909:1 2937:1 2943:1 2966:1 
-0.01913889741022799 0 0 0 0 0.09550641970330573 0 0 0 0 0 426:1 926:1 1086:1 1330:1 1380:1 1407:1 1741:1 1782:1 2017:1 2317:1 2659:1 2943:1 3001:1 
-0.06479195909864116 0.126037757170736 0.1660820134602977 0.1032812488513635 0.07121910288926726 0.08164339611772989 0 0.05885598620514586 0.01614200140326008 0.02862914177443756 0.0931740064966695 787:1 815:1 895:1 1041:1 1197:1 1363:1 1417:1 1497:1 1780:1 1953:1 2573:1 2637:2 2822:1 2909:1 2937:1 2966:1 
-0 0.016443813546661 0 0 0 0 0 0 0 0 0 451:1 575:1 576:1 769:1 1158:1 1387:1 1626:1 1741:1 2037:1 2317:1 2417:1 2637:1 2977:1 2996:1 
-1 0 0 0 0 0.003969212848433171 0.314124046399377 1 0 0.07535089276984691 0 87:1 385:1 646:1 1138:1 1713:1 1718:1 1944:1 2472:1 2645:1 2881:1 3001:1 
-0 1 0.2627700531505625 0 0 0 0 0.01239359121097234 0 0 0 135:2 225:1 686:1 1009:1 1067:1 1188:1 1380:1 1713:1 2317:1 2637:1 2847:1 
-0 0 0 0 0 0 0.04851818360031526 1 0 0.00269481112552526 0 135:2 587:1 642:1 1380:2 1944:1 2035:1 2317:1 2405:1 2637:2 
-0 1 0 0 0 0 0 1 0 0 0 146:1 197:1 768:1 770:1 914:1 1035:1 1161:2 1330:1 1958:1 2165:1 2312:1 2317:1 2634:1 2687:1 2746:1 2977:1 
-0 0 0 0 0 0 0 1 0 1 0 123:1 353:1 1380:3 1742:1 2317:1 2637:3 2703:1 2859:1 2985:1 
-0 1 0 0 0 0 0.03854520405728697 0 0.03052138884897828 0 0 13:1 135:1 497:1 1035:1 1041:1 1138:1 2317:1 2623:1 2687:1 2875:1 
-0 0 1 0 0.0173189728107664 0 0 0 0 0 0.08200944344688049 116:1 135:1 166:1 726:1 1453:1 1982:1 2315:1 2483:1 2554:1 2637:2 2825:1 2977:1 
-0 0.02777946100095155 0.06416644984508048 0 0 0.018662720008939 1 1 0.07807975029701815 0.05681615248586845 0 135:3 385:1 630:1 661:1 913:1 982:1 1041:1 1080:1 1161:1 1372:1 1380:2 1386:1 1501:1 1589:1 1759:1 1799:1 1817:1 1944:1 2205:1 2317:1 2391:1 2446:1 2637:2 3025:1 
-0 1 0.1189177631618138 0 0 0.04184265819382107 0 0 1 0.002526738365027736 0 104:1 135:1 143:1 385:1 403:1 427:1 777:1 1015:1 1035:5 1041:1 1111:1 1146:1 1162:1 1380:1 1487:1 1615:1 1799:1 2017:1 2020:1 2027:1 2600:1 2637:4 2647:1 2687:1 3025:1 
-0 0.09123525963893095 0.01958371879893901 0 0 0 0 0.0132385468016423 0 0 0.04488035443929712 1078:1 1217:1 1330:1 1715:1 2301:1 2472:1 2634:1 2637:2 2909:1 3022:1 
-0 0 0.01076987881285908 0 0 0 0.02265317435667004 0 0 0.005274602691488165 0 135:1 597:1 864:1 898:1 1041:1 1188:1 1572:1 1693:1 1741:1 1780:1 2156:1 2295:1 2356:1 2573:1 2634:1 2641:1 2645:2 2664:1 2687:1 2881:1 2922:1 2936:1 2937:1 2961:1 2977:2 3025:1 
-0.6368219811280236 0.8179533779571664 0.3158722206200724 0.09382014173094819 0 0.3029837652599193 0.1896744914676458 0.3731200984193894 0.3151035701412813 0.02790318932562744 0.1010731348449501 135:1 1323:1 1380:1 1386:1 2065:1 2856:1 2909:1 2953:1 
-0.05143588789322396 1 0.03497152060620017 0.006232404657363313 0 0 0.02182215284542976 0.02711164043021591 0 0 0 135:1 253:1 1009:1 1014:1 1161:1 1647:1 1707:1 2058:1 2317:1 2562:1 2645:1 2949:1 2962:1 2977:1 3025:1 
-0.2343954349522232 1 0.3835895331356028 0 0.05129049874373596 0.1354600253593152 0.03811586976630536 0 0.1244940329413306 0.2717872423514951 0 696:1 969:1 1380:1 2700:1 
-0 0.4323280559360925 0 0 0 0 0 0 0 0 0 696:1 913:1 969:2 1079:1 1161:1 2290:1 2317:1 2562:1 
-0 0 0 0 0 0 0 1 0 0 0 124:1 385:1 1161:1 1718:1 2317:1 2405:1 2637:1 2909:1 2911:1 
-0 1 0 0 0.04688162894961892 1 0 0 0.169240009735131 0 0 135:1 455:1 542:1 1035:1 1762:1 2019:1 2058:1 2317:1 2637:2 2687:1 2937:1 
-0 0 0 0.2283983847925831 0 0 0 0 0 0 1 1146:1 2317:1 2637:2 2700:1 2856:1 2909:1 2966:1 
-0 1 0 0 0 0 0 1 0 0 0 115:1 135:1 253:1 405:1 509:1 1035:1 1485:1 1589:1 1829:1 2058:1 2317:1 2369:1 2574:1 2637:2 
-0.1621185546926554 1 0 0 0 1 0 0.004492914600039727 0 0 0 135:1 267:1 906:1 916:1 1035:1 1057:1 1217:1 2317:1 2637:1 2645:1 2835:1 
-1 1 0 0 0 0.1396600793178987 0.3786693921258178 0.3793571813881484 0.06947807472084039 0 0.5211827434885599 1161:1 2472:1 
-0 0.07638606229218657 0.05738188590381851 0 0 0 0 0 0 0.03015198139718138 0.00180007607774987 192:1 245:1 270:1 297:1 385:1 443:1 710:1 1111:1 1188:1 1801:1 1949:1 2637:2 2672:1 2687:2 2825:1 2886:1 2922:2 2937:1 
-0 1 0 0 0 1 0 0.159651861203928 0.174255025144983 0.0495751563842974 0 135:1 253:1 385:1 982:1 1035:1 1380:2 1386:1 1487:1 1564:1 1762:1 1902:1 1944:1 2017:1 2020:1 2060:1 2317:1 2343:1 2637:3 2659:1 3000:1 3019:1 3025:2 
-0 0 0 0 0 0 0.06108093825508094 1 0 0 0 253:1 403:1 671:1 1380:1 1718:1 2317:1 2465:1 2664:1 
-0.4089449876031102 0.415409441210227 0.3635660242606202 0.008342755539839349 0.005689242614704252 0.4106510524156689 0.1425069395282638 0.3075945570695456 0.2906578404790057 0.08072941821141547 0.2556285392348268 166:1 1718:1 2637:1 2664:1 2890:1 
-0.08149704085389194 0.08627454698888105 0.008012731580019328 0.1575597406881938 0.06643304041121877 0 0.0872026209350147 0 0.04405228355499018 0 0.1131834335431329 139:1 270:1 898:1 1002:1 1132:1 1475:1 1594:1 1693:1 1762:1 1768:1 2647:1 2966:1 3003:1 
-0.003546592219583425 0 0 0.01103411340213241 0 0.02361824443267826 0 0 0 0.003231234854137725 0 42:1 413:1 768:1 1386:1 1487:1 1680:1 1741:1 1762:1 2300:1 2637:1 2647:1 2679:1 3025:1 
-1 0.05042196364235722 0 0.008117615913321519 0.03742834562033571 0.00475623038429684 0 0.09311220577543335 0 0.02675013582937819 0 192:1 253:1 294:1 304:1 385:1 403:1 890:1 1173:1 1217:1 1311:1 1380:1 1689:1 1826:1 2165:1 2220:1 2564:1 2637:2 2681:1 3025:1 
-0 0.03044929118200347 0.07570814388060708 0.02672253812695378 0.0115822711524757 0 0.01792792257347757 0.04441123808084492 0.05682787845839801 0.00638771926592204 0.004662876497581634 135:1 721:2 1047:1 1050:1 1294:1 1331:2 1939:1 1951:1 1954:1 2243:1 2637:1 2647:1 2977:1 
-0.07817647477020111 0 0.0454214980822738 0.04883900345406615 0.03517104262332019 0 0.02204492865541348 1 0 0.02516981596105644 0.01285150162146745 135:1 237:1 490:1 981:1 1161:1 1210:1 1718:1 1896:1 2472:1 
-0.3580266935390976 0.7710491210024747 0.1087315508547106 0 0.06853011767624895 0.3539041380677959 0.04102177179462381 0 0.1069503917876163 0 0.001154306912240411 166:1 1079:1 2856:1 2889:1 
-0 0 0 0 0 0 0.09112804080739964 0.9430898024862665 0.0186098520386442 0 0 124:1 135:1 661:1 1041:1 1146:2 1173:1 1380:2 1799:1 1819:1 2317:1 2637:1 
-0 1 0.1230026499676656 0 0 0 0 0 0 0 0 135:1 686:1 1035:1 1188:2 1192:1 1299:1 1693:1 1742:1 2317:1 2446:1 2489:1 2637:2 2703:1 2909:2 
-0 0.002569531740026897 0 0 0 0 0 0 0 0 0 135:2 145:1 184:1 262:2 299:1 385:1 402:1 405:1 411:1 710:1 1041:1 1116:1 1217:1 1221:1 1330:1 1386:2 1435:1 1594:1 1689:1 1693:2 1741:1 1759:1 1762:1 1782:1 1790:1 2234:1 2301:1 2416:1 2432:1 2446:1 2637:1 2645:1 2883:1 2909:2 2948:1 
-0.08070975275094322 0 0 0.04485050798725171 0.01304282567974116 0.03607114194294688 0.142423183856788 0 0.02790142545987306 0.07835219065397345 0.04387062452393081 134:1 203:1 1578:1 1762:1 2637:1 2743:1 2883:1 
-0.1070923952090811 0.9620049739075951 0.3600080674368749 0.03043530890517582 0.1316283673204493 0.420003451170308 0 0.5653728282248693 1 0.1240481747768298 0 135:1 166:1 455:1 1035:1 1380:1 1718:1 2405:1 2637:2 2884:1 
-0.980451159155994 0.08443994291279232 0.1363092877571843 0 0.01751097294845715 0 0 0.06549443116159968 0.0556549627172956 0 0.06130840874764115 135:1 166:1 391:1 779:1 908:1 1111:1 1336:1 1380:1 1386:1 1409:1 1487:1 1594:1 1726:1 1910:1 2634:1 2637:1 2645:1 2956:1 2993:1 3009:1 
-0.2187600277147496 0.2350372566199123 0.01072718517282568 0.05688161077717786 0 0 0.1390974772102598 0.1200616025617324 0.005629045855343489 0 0.1916206894360817 64:1 253:1 560:1 1146:1 1522:1 1666:1 1762:1 2300:1 2630:1 2637:1 2687:1 2886:1 2888:1 
-0 0 0 0 0 0 0 0 0 0.008745335542048023 0 84:1 107:1 127:1 135:1 166:2 184:1 217:1 344:1 736:1 779:1 869:1 1086:1 1151:1 1253:1 1289:1 1330:2 1436:1 1568:1 1590:1 1693:1 1780:1 1786:1 2511:1 2560:1 2605:1 2634:1 2637:3 2647:1 2651:1 2652:1 2684:1 2950:1 2993:1 3017:1 3025:2 
-0 0.03295949440212338 0.01224221189535296 0 0 0 0 0.02998018301626102 0 0 0.02026332694279494 135:1 547:1 720:1 1179:1 1417:1 1568:1 1652:1 1666:1 2637:2 2683:1 2687:1 2886:1 2902:1 2922:1 
-0.9593157868917142 0.03181727843262337 0 0 0 0.04646217863932313 0.02965474469620374 0.02928255545308243 0 0 0.009630411520142126 135:1 262:1 391:1 639:1 709:1 1111:1 1146:1 1161:1 1380:2 1726:1 1782:1 1944:1 2321:1 2416:1 2472:1 2637:2 2659:1 2743:1 2809:1 2814:1 2958:1 2976:1 3001:1 
-0 0.02232447076599847 0 0 0 0.09642762071932486 0.06192729662161413 0.02973867989415281 0 0 0 385:1 1041:2 1179:1 1217:1 1493:1 1637:1 1780:1 1900:1 1944:1 1977:1 2017:1 2634:1 2637:1 2658:1 2671:1 2687:2 2881:1 2911:1 3025:1 
-0.09460212454278852 0.1067832407915399 0.04286070886752596 0 0 0 0 0.109535792788993 0 0 0.04251308434934532 135:1 192:1 223:1 644:1 901:1 931:1 989:1 1188:1 1241:1 2165:1 2317:1 2637:1 2909:1 2922:1 2931:1 2999:1 
-0.06518791532189851 0 0.07473749515403122 0 0 0 0.08978318212550447 0.0956417445753259 0.0214233085210985 0 0 135:1 181:1 184:1 402:1 1041:1 1109:1 1167:1 1568:1 1590:1 1680:1 1799:1 1801:1 1815:2 2393:1 2405:1 2573:1 2637:1 2687:1 2978:1 
-0.04634896782592133 0.07902206012016962 0 0 0 0.01467168898867013 0.04760871991652836 0.02627895144244061 0 0 0 42:1 184:1 192:1 437:1 543:1 727:1 752:1 902:1 1221:1 1289:1 1330:1 1380:1 1564:1 1593:1 1741:1 1811:1 1944:1 2006:1 2146:1 2166:1 2360:1 2627:1 2652:1 2659:1 2687:1 2909:1 2948:1 
-0.07833313735601129 0.1442582702976702 0.03490282885063688 0 0 0 0.125959507396395 0.1189057686283709 0.07070952583262052 0 0 135:1 253:1 645:1 726:1 788:1 902:1 1340:1 1380:2 1386:1 1707:1 1741:1 1944:1 2220:1 2634:1 2645:1 2687:2 2777:1 2784:1 2909:1 2954:1 
-0 1 0.03989454457895412 0.005705420959285602 0 0 0 1 0 0 0.09775134175000076 135:1 197:1 686:1 753:1 913:1 1079:1 1146:1 2317:1 
-1 1 0 0 0 0 0 0.9811359508853957 0.03163905331776223 0 1 804:1 905:1 1035:1 1625:1 2472:1 2909:1 2984:1 
-0.1702531920433673 0.2103868876317887 0.01149275079639125 0 0 0 0 0.05879387701626027 0 0 0.06769365595024375 335:1 385:1 721:1 1217:2 1283:1 1563:1 1693:1 1697:1 2157:1 2637:1 2681:1 2687:1 2731:1 
-0 0 0 0 0 0 0 0.1037015616710558 0 0 0 135:1 248:1 253:1 267:1 385:1 502:1 1210:1 1666:1 1708:1 1718:1 1771:1 2097:1 2298:1 2472:1 2516:1 2637:2 2647:1 2687:1 2800:1 
-0 0 0 0 0 0 0 1 0 0 0 135:1 248:1 253:1 267:1 385:1 502:1 1210:1 1666:1 1708:1 1718:1 1771:1 2097:1 2298:1 2472:1 2516:1 2637:2 2647:1 2687:1 2800:1 
-0.0539653567973509 1 0.06525880442207975 0 0.001621872603222312 0 0.08366975250053722 0.178266429984517 0 0.08580693948138379 0.08232905901456762 135:1 431:1 877:1 902:1 987:1 1086:1 1280:1 1386:1 1487:1 1762:1 2218:1 2292:1 2450:1 2637:2 2687:1 2889:1 
-0.01983792536712665 1 0 0 0 0 0.005926100439183706 0 0 0 0 135:1 145:1 431:2 686:1 961:1 1152:1 1251:1 2112:1 2231:1 2317:1 2687:1 2703:1 2903:1 2956:1 
-0 0 0 0 0 0 0 0.006231137397948083 0 0 0 64:1 135:1 541:1 875:1 1079:1 1476:1 1596:1 2092:1 2472:1 2634:1 2637:1 2977:1 3025:2 3027:1 
-0 0.1346813660543508 0 0 0 0 0 0 0 0 0 304:1 385:1 2317:1 2389:1 2637:1 2909:1 
-0 0 0 0 0 0.01144014274215535 0 0 0 0 0 113:1 1146:1 2317:1 2856:1 2909:1 
-0 1 1 0.1366379474233994 0 0 0 0.990983254887283 0.01213675024798093 0 0 134:1 135:1 1035:1 1146:1 1161:2 1615:1 2317:1 2322:1 2372:1 2807:1 
-0.1880194926576031 1 1 0 0.0009357995422434025 0.1137455274283838 0 0.2001530797424418 0.04206403534523952 0.0003758011668958872 0.1451668434753674 135:1 282:1 696:1 970:1 1068:1 2637:2 2844:1 
-0 1 0.2195849904195752 0 0 0 0 0 0 0 0 135:1 686:1 913:1 1035:1 2317:1 2637:2 2909:2 
-0.2180449994528501 1 0.04441334614923667 0 0 0 0 0 0.1606746489619844 0 0.02238344528177196 213:1 385:1 696:1 1035:1 1146:1 2621:1 2627:1 2687:1 
-0.4149133921945337 0.5534890505598682 0.2382901943468842 0.03698383013631692 0.11397311887483 0.07074110601747124 0.1780547621577379 0.1331043935404922 0.2133943837435097 0.03168455690643798 0.1804034617164145 1035:1 1041:1 1286:1 1782:1 1825:1 2847:1 2882:1 
-0 0.06966850726914377 0.01409851663567341 0 0 0 0 0 0 0 0 44:1 64:1 135:1 262:1 397:1 495:1 1035:1 1459:1 1594:1 1762:1 1817:1 2184:1 2637:1 2647:2 2856:1 2909:1 2937:2 2948:1 2977:1 
-0.1570654480018452 1 0.1253135000271835 0.01063299534524362 0 0.07008501816594867 0.05594561872046099 0.1360503706472323 0.197591826069841 0.05672441670028457 0.0599116436322935 14:1 84:1 135:1 176:1 397:1 522:1 1035:1 1637:1 2410:1 2637:1 
-0.6478632086001596 0.9788441586362476 0 0 0 0.05178653146240312 0 0.3265254874758982 0 0 0 134:1 913:1 2317:1 
-0.04334138402413335 0 0.02424552245882643 0.00287037222152673 0 0.02691889518277587 0 0 0 0.01456297120278035 0 135:1 389:1 590:1 1166:1 1718:1 2036:1 2637:1 2856:1 2883:1 2909:1 2922:1 2937:1 2956:1 
-0.03570828109131785 1 0.04365611267424217 0.01679830398910934 0 0 0 0 0.01159950690977754 0 0.02144992348868689 42:1 135:1 753:1 804:1 1035:1 1146:1 1236:1 1237:1 1330:2 1341:1 1435:1 1526:1 1744:1 1762:1 1803:1 2334:1 2363:1 2538:1 2825:2 2856:1 2909:1 2922:1 
-0 1 0.02531529075213737 0 0 0 0 0 0 0 0 961:1 1035:1 1161:1 1241:1 2317:1 2909:2 
-0 0.8355129681887763 0 0 0 0 0 0 0 0 0 135:2 1035:1 1079:1 1380:2 1822:1 2033:1 2065:1 2317:1 2637:2 2856:1 
-0 1 0.040893996318961 0 0 0 0 0 0 0.0190405120345574 0 135:1 166:1 634:1 1067:1 1079:1 1352:1 1380:2 2472:1 2637:3 2650:1 
-0 1 0 0 0 0 0 0 0 0 0 192:1 223:1 282:1 385:1 1035:1 1138:1 1276:1 1386:1 1550:1 1594:1 1604:1 1713:1 2317:1 2634:1 2637:2 2687:1 2878:1 2909:2 
-0 0.03523605625800313 0.0678427054832383 0 0.0216230662538511 0.08259207336438043 0 0 0 0 0.02451860193843836 84:1 135:1 166:1 1185:1 1241:1 1318:1 1661:1 1776:1 1823:1 1850:1 2234:1 2637:2 2701:1 2883:1 2922:1 3025:1 
-0.5648253459281181 0.1447887630402161 0.0922979516664868 0.05949023870659059 0 0.0771586690831676 0.2036365561486339 0.2511089291320209 0.08293485617899897 0.02794146948077764 0.09883804761203453 45:1 1817:1 2230:1 2405:1 2804:1 2825:1 2909:1 
-0 1 0 0 0 0 0 0.04829995178779632 0 0 0 214:1 1035:1 1041:1 1161:2 1380:1 1910:1 1944:1 1966:1 2217:1 2317:1 2637:1 2687:1 2901:1 2956:1 
-0 0.05293388925842184 0 0.04208062615582182 0 0 0 1 0 0.0002978061915158459 1 135:1 315:1 671:1 913:1 1161:1 1380:3 2003:1 2235:1 2317:1 2430:1 2637:3 2856:1 2990:1 
-0 0.9174535097463518 0 0 0 0 0 0 0 0 0 116:1 135:1 172:1 203:1 267:1 282:1 452:1 637:1 1210:1 1380:1 1741:1 1786:1 2317:1 2637:3 
-0.105597870923516 1 0.04960990097744176 0 0 0.0326906665143268 0.02331485708094307 1 0.05188142058495909 0.1305967759465682 0 259:2 385:1 770:1 1035:1 1380:1 1586:1 1910:1 2070:1 2165:1 2318:1 2629:1 2637:1 2814:1 2977:1 3025:1 
-0.3186992204055736 0.3321878334688487 0.1902548774329261 0.0803819064264574 0.08783638757217309 0.5403038458374603 0.1319528740412096 0.0921126247277788 0.0220469315913001 0.042945941125358 0.1144128820500153 102:1 449:1 726:1 2019:1 2637:1 2647:1 2679:1 
-0 0.1582110399814364 0 0.03932172903506381 0 0 0 0 0.2264956552695539 0 0 135:1 192:1 1079:1 1741:1 2092:1 2220:1 2647:1 2681:1 2856:1 
-1 0.09285798942532926 0.08812972187415434 0 0 0.02660338260376931 0.01728832372151086 1 0 0.04431948920345388 0 385:1 398:1 489:1 505:1 515:1 667:1 769:1 1032:1 1052:1 1195:1 1330:1 1666:1 1762:1 1766:1 1944:1 2207:1 2527:1 2531:1 2630:1 2634:1 2637:2 2645:1 2646:1 2659:1 2700:1 2773:1 2792:1 2906:1 2909:1 2977:1 3025:1 
-0 1 0 0 0 0 0 1 0 0.07171193943681439 0 135:1 197:1 1035:1 1321:1 1380:1 1552:1 2317:1 2637:3 2793:1 
-0.5950728145742051 0.3803970632864013 0.3600368179049204 0.05749071444346261 0 0.1291099380044252 0.1299569384958903 0.2111519351125716 0.05868772486901506 0.07044844739411184 0.1556090208565895 210:1 294:1 549:1 1723:1 2637:1 2689:1 
-0.8948413094491356 0.5317353428276307 0.3681190930981275 0.01751960104158513 0.02011094411915296 0.3787149785769483 0.4425275752909844 0.1981742995716425 0.2100512458984625 0.08348124406471766 0.3252516899419238 768:1 1386:1 1683:1 2981:1 
-0.2904997496829578 0.4125272057024099 0.3487587508929147 0.06690116869982535 0 0.1510965354751972 0.0879139766974139 0.1153754383326807 0.2544805819345246 0.03710541081576208 0.1195126949246833 113:1 185:1 403:1 777:1 976:1 1041:1 1217:1 1311:1 1386:2 1615:1 1741:1 1780:2 1947:1 2202:1 2637:1 3025:1 3027:1 
-0 1 0.2641743970146501 0.0743341997842327 0.04786872385357308 0 0.0745013221995945 0.3545450311895488 0.08843392407769721 0.2043180880002709 0.01993308914148326 135:1 686:1 1330:1 1380:2 1719:1 1751:1 1762:1 1782:1 1940:1 2040:1 2637:3 
-0.01364943382629477 0.1536182211475299 0.05438963127383167 0.04715736824361734 0 0.09204381549780379 0.9960650849293657 0.1951931030757638 0 0 0 385:1 630:1 969:1 1493:1 1501:1 1675:1 2097:1 2634:1 2647:1 
-0.09022952670513892 1 0.04724592540109216 0.05539177938520656 0.003386865473612609 0.06259999495636764 0.1024793403639241 0.1183882358696615 0.08526025443587242 0 0 143:1 166:1 229:1 253:1 385:1 1563:1 1741:1 1775:1 2154:1 2446:1 2552:1 2687:1 
-0.04279769067904399 0.03503658957196499 0.01525526814560479 0 0 0.001416300369150253 0.1174988252064933 0.03357060482468949 0.01689469687052773 0 0.007438886044363906 134:1 135:1 184:1 245:1 382:1 461:1 861:1 945:1 1041:1 1568:1 1594:1 1693:1 1788:1 2243:1 2581:1 2637:1 2687:1 2694:1 
-0 0.1235785750711247 0 0 0 0 0 0 0 0 0 969:1 1146:1 2317:1 
-0.189958437744387 0.288426604799339 0 0 0 0.03036145210488866 0.2195601934779104 0.1351757390840359 0.06293578279174339 0 0.1019398494982934 116:1 384:1 385:1 969:1 1677:1 
-0 0.01469263951726648 0.1147730118599493 0 0.03612446127019071 0.006545472640129936 0 0 0.01594063483368447 0 0 135:1 166:1 282:1 403:1 626:1 1000:1 1238:1 2318:1 2472:1 2637:1 2971:1 3025:2 
-0 1 0 0 0 0 0 0 0.06276924864059406 0 0 135:1 1035:1 1146:1 1380:1 2317:1 2909:1 2984:1 
-0 0.0224753979199251 0.05634313746276909 0 0.04011020455782967 0 0 0.008342012429309209 0.03281855962905671 0 0 82:1 135:1 258:1 647:1 1041:1 1093:1 1147:1 1330:2 1380:1 1594:1 1670:1 1741:1 1869:1 1958:1 2334:1 2472:1 2630:1 2634:2 2637:3 2881:1 2921:3 2984:1 
-0.2593034511916534 0.005086140466631538 0.0113301652448041 0 0 0.01772698463147727 0.05921804151766234 0.09373645547579741 0 0 0 407:1 1077:1 1315:1 1330:1 2165:1 2472:1 2996:1 
-0 1 0.08734671889496652 0 0 0.03837739740757035 0 0.09925258060347913 0.04919057570915051 0.02666528001661615 0.004387429854077887 135:2 285:1 445:1 467:1 605:1 820:1 1041:1 1386:1 1664:1 1741:1 1762:1 1883:1 2472:1 2637:4 2909:1 
-0 0.08381788420574274 0 0 0.01475321000890063 0 1 1 0.01800109078346888 0 0 114:1 197:1 385:1 477:1 730:2 777:1 1041:2 1117:1 1241:1 1311:2 1380:3 1487:1 1517:1 1741:1 1799:1 2085:1 2333:1 2382:1 2541:2 2574:1 2637:2 2659:1 2762:1 2881:1 3025:1 3027:1 
-0 0 0 0 0 0 0 1 0 0 0 135:1 197:1 424:1 1079:1 2317:1 2637:2 2909:2 
-0 0 0 0 0 0 0.09821249559816798 0 0 0 0 64:1 253:1 275:1 285:1 389:2 644:1 1173:1 1680:1 1944:1 2225:1 2313:1 2317:1 2405:1 2634:1 2659:1 2785:1 3001:1 
-0.047292381117066 0.03042384873189495 0.02958589624572068 0 0 0.04755088966436765 0.01840591948943851 0 0.00322913997616937 0 0 113:1 135:1 166:1 172:2 263:1 385:1 389:1 486:1 661:1 900:1 1127:1 1154:1 1237:1 1284:1 1330:1 1465:1 1741:2 1786:1 1944:1 2126:1 2203:1 2225:1 2405:1 2637:4 2647:1 2659:1 2679:1 2962:2 3025:2 
-0.1610479012744998 0.1255696063764994 0.08912511997758639 0.008857591472184567 0.02218080379587359 0.07074657101652022 0.06601641043066402 0.1076811523882014 0.08481844665576871 0.01481057725613187 0.02233321545103417 42:1 135:1 140:1 146:2 192:1 869:1 1007:1 1041:1 1127:1 1330:1 1724:1 1741:1 1782:1 1920:1 2162:1 2165:1 2584:1 2637:1 2659:1 2962:1 
-1 0.1762283092155623 0.01856627571821519 0.03356356535890978 0 0.07050834385007569 0.1373564626152813 0.1207975117900197 0.007132252841194696 0 0.05586219279844788 253:1 704:1 787:1 1567:1 2352:1 2621:2 2687:1 
-0 0 0 0 0 0 0.01059812871962758 0 0 0 0 135:1 228:2 777:1 796:1 854:1 1041:1 1563:1 1786:1 2637:1 2647:2 2688:1 2981:1 3027:1 
-0.3457982285596947 0.6293147630469136 0.2170005170457827 0.03072770944959458 0.04572224481415087 0.07206957811756885 0.1105092326173962 0.4842408483821665 0.3034506063578079 0.2679825808336644 0.08532185815394458 385:1 1046:1 1251:1 1380:1 2634:1 
-0 0.03108667776141488 0.02806046805152557 0 0.008074729162924465 0.02554116705688335 0.142361225695106 1 0 0 0 124:1 134:1 135:2 192:1 593:1 913:1 982:1 1076:1 1180:1 1210:1 1487:1 1563:1 1944:1 2241:1 2472:1 2637:3 2659:1 2679:1 2687:1 3025:1 
-0 1 0 0.02239989899070908 0.03713995208213135 1 0 0 0.5486304751577107 0.05794389903433981 0 1035:1 1161:3 2019:1 2317:1 
-0.08039616311186842 0.07040806088975964 0 0 0 0 0.08555822007200342 1 0 0.001875983150729795 0 113:1 135:1 565:1 736:1 1064:1 1161:1 1217:1 1330:1 1386:2 1417:1 1502:1 1713:1 1915:1 1944:2 2092:1 2205:1 2317:1 2405:1 2634:1 2637:2 2647:1 2687:2 2856:1 2901:1 2922:1 
-0.2284773723607036 0.754581141721955 0 0 0 0.1250941466847932 0 0.1920505794205305 0 0 0.2324110128785665 203:1 2637:1 2883:1 2909:1 
-0.1545394195554584 1 0.05324889778177082 0 0 0.005973439708621198 0.01532338789868976 0.00414040575749471 0 0 0.01232491561386835 15:1 160:1 282:1 736:1 791:1 1014:1 1104:1 1420:1 1594:1 1775:1 1782:1 1974:1 1992:1 2027:1 2522:1 2539:1 2637:1 2746:1 2883:1 2937:1 
-0 1 0 0 0 0.09009939502473839 0 1 0 0 0 671:1 1035:1 1161:3 2317:1 
-0.04166156106898839 0.336296709683481 0.2317027988057567 0 0 0 0.1147080257271219 0.3458412248127574 0.08721544537750507 0.02637850570166759 0.03262273228537391 135:1 197:1 898:1 1161:1 1386:1 1427:1 1693:1 2044:1 2647:1 2687:1 2700:1 2937:1 2977:1 
-0 0.8504051307038295 0 0 0 0 0 0 0 0 0 916:1 1035:1 1380:2 1666:1 1786:1 2317:1 2630:1 2637:3 2651:1 2953:1 2984:1 
-0.03390910465746125 0 0 0 0 0 0.06390142093363817 0 0 0 0 476:1 768:1 777:1 1041:1 1380:1 1466:1 1786:1 2637:2 2651:1 2884:1 2948:1 2974:1 3025:2 3027:1 
-0 1 0.9592101066076691 0 0 0 0 0 0 0.01953142941606763 0 135:3 996:1 1035:1 1079:1 1380:2 2033:1 2317:1 2601:1 2637:2 2984:1 
-0 1 0 0 0 0 0 0 0 0 0 66:1 135:3 282:1 969:1 1035:1 1079:1 1188:1 1285:1 1597:1 2255:1 2317:1 2601:1 2637:3 2647:1 2687:2 2856:1 2909:2 3027:1 
-0.8968835424360441 0.9922257655056718 0.4827959554123573 0.005062278125283129 0 0 0.5301351829072416 0.3003306790324335 0.1406104182335791 0 0 102:1 1436:1 2647:1 3025:1 
-0 1 0.02894701772958896 0 0 0 0 1 0 0 0 123:1 135:2 197:1 267:1 285:1 597:1 1035:1 1161:1 1217:1 1526:1 2317:1 2637:2 2937:1 2954:1 
-0 0 0 0 0 0 1 0 0 0.004608116959991236 0 135:2 1079:1 1113:1 1188:1 1330:1 1380:1 1713:1 2031:1 2317:1 2573:1 2893:1 
-0 0.08890161292732428 0 0 0 0 0 1 0 0 0.009743059742679298 135:1 197:1 913:1 1290:1 1488:1 1526:1 2317:1 2322:1 2637:1 2909:1 
-0 0.5345100316259888 0.2056143793702386 0 0 0 0.5832638334104682 0.2703699531937373 0.002179257724697627 0 0 116:1 166:1 1079:1 1910:1 
-0 0.7271017875471499 0 0 0 0 0 1 0 0 0 135:1 197:1 703:1 1146:1 1718:1 1958:1 2317:1 2637:2 2856:1 2909:2 
-0 0.02341251522991671 0 0 0 0 0 0.9638989496941014 0 0 0 102:1 135:1 282:1 969:1 1079:1 1380:3 1762:1 1842:1 2317:1 2545:1 2637:2 2857:1 2904:1 
-0.3093866923142036 0.227031724197175 0.1199146244309201 0.0008826195707580947 0 0.1054159995301591 0.05682863796014802 0.08546711869437786 0.08545814775534027 0.000191201104959432 0.1848442014479177 183:1 242:1 1041:1 1330:1 1569:1 1719:1 2637:1 2828:1 
-0 1 0.06166877812446173 0 0 0 0 1 0 0 0 385:1 671:1 913:1 1035:1 1146:1 1241:1 1458:1 1718:1 1720:1 2317:1 2558:1 2637:1 2909:1 2936:1 
-0 0.1751458815985945 0 0 0 0.01985442743046322 0 1 0 0.03656557738693569 0 135:1 501:1 1146:1 1380:2 2167:1 2317:1 2637:2 
-0.1052952136577849 0.3530134699848976 0.02952602319513701 0 0 0 0 1 0 0.03828288831105156 0 135:1 197:1 282:1 1210:1 1330:1 1751:1 2079:1 2317:1 2637:1 
-0.1194723172556133 0 0 0 0 0 0.02418310141208987 0 0 0 0 53:1 1380:1 2472:1 2856:1 
-0 1 0 0 0 0 0 0 0 0 0 135:1 1035:1 1161:1 1338:1 1341:1 1380:1 2317:1 2637:1 
-0.2591969290704445 0.1920953441215723 0.1317963947850213 0 0 0 0.1267883654522836 0.3046425239171169 0 0 0.03884729497221929 102:1 428:1 1708:1 1842:1 2637:1 2687:1 2743:1 3027:1 
-0 0.1203005462686527 0.09615019654228728 0.001101721882915326 0 0 0.06746774643128503 0.05205401923547276 0.005640675303895489 0 0 135:1 165:1 402:1 956:1 1041:1 1104:1 1221:1 1330:1 1802:1 1856:1 2625:1 2640:1 2641:2 2643:1 2687:1 2948:1 
-0.06038593325026898 0.05980548248894407 0.1149300285360785 0.1710657267587241 0 0 0.01127921181000623 0 0.06590950704746995 0.0008659018266570391 0.005670984900990985 482:1 903:1 1207:1 1258:1 1666:1 2643:1 2909:1 2977:1 
-0 0.1544481519174906 0.09790327635665241 0 0 0.08929515276119357 0.01243510900198458 0 0 0 0 166:1 534:1 1041:1 1241:1 1380:1 1741:1 2317:1 2943:1 3025:1 
-0.02704397678008852 1 0 0.02960680286458448 0.06246147719201305 1 0 1 0.0885289457275238 0 0.08856526156377383 83:1 1035:1 1146:1 1161:1 1686:1 2019:1 2317:1 2452:1 
-0 0 0 0 0.1870903315884661 0 0.1919310511454534 0 0 0 1 116:1 135:1 804:1 1146:2 1380:1 2014:1 2317:1 
-0 1 0 0 0 0 1 0.005740120278087823 0.04608323280613696 0 0 135:1 467:1 777:1 1009:1 1221:1 1311:1 1380:2 1487:1 1523:1 1538:1 1629:1 1641:1 1944:1 2001:1 2058:1 2384:1 2472:1 2562:1 2634:1 2643:1 2659:1 2790:1 3025:1 3027:1 
-0 0.9880360652329456 0 0 0.01105187427344492 1 0 1 0.9707567196612724 1 0 102:1 135:2 192:1 212:2 456:1 506:1 671:1 930:1 943:1 982:2 1035:1 1079:1 1107:1 1146:1 1267:1 1311:1 1330:2 1487:1 1563:1 1564:1 1569:2 1570:1 1635:1 1670:1 1762:1 1780:1 1799:1 2013:1 2018:1 2019:1 2092:2 2165:1 2184:1 2210:1 2353:1 2412:1 2453:1 2472:1 2637:1 2679:1 2730:1 2817:1 2856:3 2861:1 2940:1 2962:1 3025:4 3027:1 
-0 0.07695098693932859 0 0.05956494448718946 0.06615250804630977 0 0.04022623376073547 0.1144055000910297 0.01966164761974735 0 0.0972606208120437 135:3 661:1 1285:1 1693:1 1695:1 1780:1 1821:1 2115:1 2289:1 2458:1 2603:1 2637:1 2883:1 2922:1 2937:1 2966:1 
-0.452387173172022 0.4772143182097096 0.1178826324717501 0.007872610329655329 0.04839585084195679 0.1162324704490335 0.1711474352534036 0.3085344307705726 0.02695225381275432 0.01317419696985769 0.1768452644729646 1360:1 2339:1 2643:1 2922:1 2937:1 
-0 0 0 0 0 0 0.001849427015352341 0 0 0 0 9:1 134:1 135:1 153:1 184:1 554:1 768:1 804:1 898:1 1041:1 1104:1 1111:1 1148:1 1253:1 1365:1 1494:1 1637:1 1782:1 1799:1 1801:1 1815:1 2403:1 2405:1 2581:1 2653:1 2687:1 2825:1 2883:1 2922:3 2948:1 3001:1 3002:1 
-0 0 0 0 0 0 0 0 0.9202697284952687 0 0 46:1 135:1 177:1 192:1 413:1 514:1 733:1 770:1 777:2 1035:1 1136:1 1146:1 1567:1 1572:1 1707:1 1780:1 1837:1 2109:1 2166:1 2317:1 2405:1 2472:1 2634:1 2637:1 2647:1 2832:1 2881:1 2956:1 2977:1 2993:1 
-0 1 0 0 0 0 0 0.06854625921872465 0.9255484655957656 0 0 20:1 117:1 135:4 167:1 292:1 743:1 1035:1 1715:1 1780:2 1827:1 1928:1 2020:1 2130:1 2317:1 2353:1 2637:4 2665:1 2687:1 2731:1 2909:2 2977:1 
-0.1573342035108178 0.1759476330956145 0.0001999650836404365 0.02368888460649907 0.02955502337817078 0.0550765825103924 0 0.05660160428163416 0.01899832438911494 0.04901620846462407 0.0751938097586399 551:1 1336:1 1380:2 1568:1 1786:1 2031:1 2634:1 2637:2 
-0.362024845957182 0.2251118994819613 0.1002602907477551 0.01241570086198471 0.04353920263616315 0.1425530546598356 0.1583316511634169 0.09488377058855088 0.06899048792091085 0.07759266648157598 0.05411289915818535 143:1 158:1 192:1 947:1 1138:1 1144:1 1221:1 1330:1 1380:1 1386:1 1659:1 1989:1 2687:1 
-0 0.2248201650559313 0 0.01219317538069573 0.04800529900447376 0 0 0.1124496864265879 0 0.001145762612253318 0 135:1 166:1 203:1 208:1 1079:1 1670:1 1762:1 2070:1 2315:1 2637:1 2856:1 
-0 1 0 0 0 0 0 1 0 0 0 135:2 612:1 913:1 1035:1 1161:1 1380:1 2132:1 2317:1 2637:2 2856:1 2857:1 2909:2 
-0 0 0 0 0 0 0 1 0 0 0 115:1 135:1 768:1 833:1 1146:1 1431:1 1487:1 1762:1 1826:1 1944:1 2063:1 2133:1 2317:1 2637:2 2647:1 2687:2 2762:1 2856:1 2909:1 2918:1 2943:1 3001:1 3025:1 
-0.07619202164858181 0.01668789263189482 0 0.02658154138755172 0.007861402092929836 0.01477103066873457 0.03611956610565738 0.08674549334029874 0 0.02403420277591362 0 204:1 696:1 789:1 1185:1 1217:1 1311:1 1330:1 1380:1 1561:1 1803:1 2092:1 2637:1 2645:1 3025:1 
-0 0.09811340425406101 0.002321794771179753 0.03961389411340691 0.001757383068204526 0 0.04119284169573026 0.04777685760835908 0.01711378075409731 0 0 116:1 135:2 352:1 696:1 743:1 794:1 1185:1 1188:1 1217:1 1292:1 1330:1 1502:1 1526:1 1691:1 1713:1 1762:1 1862:1 2297:1 2534:1 2640:1 2684:1 2779:1 2894:1 2956:1 2977:1 
-0.09766980074701603 0.21111403157041 1 0.1117261878193849 0.0966068874119963 0 0.001607773932523792 1 0 0 1 671:1 1001:1 1093:1 1146:1 1369:1 2303:1 2317:1 2967:1 
-0 0 0 0 0.006102609777005574 0 0 0 0 0 0 42:1 135:2 192:1 267:1 385:1 534:1 1041:1 1146:1 1161:1 1217:2 1241:1 1445:1 1452:1 1744:1 2265:1 2317:1 2472:1 2637:2 2652:1 2687:1 3015:1 
-0.0006279339002069941 0 0.0008781532243007074 0 0 0 0.0004504827115595964 0.001204949911189148 0.000695773980556637 0 0 41:1 102:1 115:1 116:1 121:1 135:1 181:1 382:1 385:1 573:1 626:1 769:1 898:1 956:1 1065:1 1105:1 1217:1 1221:1 1258:1 1282:1 1386:1 1501:1 1594:1 1741:2 1825:1 2139:1 2405:2 2637:3 2659:1 2687:1 2727:1 2870:1 2872:1 2977:1 3015:1 
-0.04803523808208974 0.08151814173095071 0.05564133090536273 0 0 0 0.01592874697728101 0.07148481333822312 0.008803510377836252 0 0 41:1 102:1 115:1 116:1 121:1 135:1 181:1 382:1 385:1 573:1 626:1 769:1 898:1 956:1 1065:1 1105:1 1217:1 1221:1 1258:1 1282:1 1386:1 1501:1 1594:1 1741:2 1825:1 2139:1 2405:2 2637:3 2659:1 2687:1 2727:1 2870:1 2872:1 2977:1 3015:1 
-0.1139902650372385 0.03044539108121691 0 0 0 0 0 0 0 0 0 1188:1 1217:1 1644:1 1713:1 1781:1 2031:1 2184:1 2259:1 2317:1 2977:1 
-0.0721829951851963 0.02924910512028588 0.06855384154058849 0 0 0.01589536114970976 0.1324490127935558 0.2070872933816075 0 0.04865877049721089 0.06280249655275784 135:1 253:1 403:1 664:1 696:1 698:1 1447:1 1762:1 1780:2 1799:1 2463:1 2637:3 2924:1 2927:1 
-0.1594039723384223 0.137123749875974 0 0 0.009371386654098392 0 0.04695975806209955 0 0.03370995805051234 0 0.01461885658573805 2:1 696:1 777:1 1111:1 1184:1 1311:1 1666:1 2420:1 2630:1 2683:1 2821:1 3025:1 
-0 1 0.1951151125140999 0 0 0 0 0 0 1 0 135:1 203:1 493:1 686:1 1035:1 1161:1 1762:1 2637:4 2860:1 2883:1 2909:2 2937:1 
-0 0.6495093213699341 0 0 0 0 0 0 0.01640235429246202 0 0 135:2 203:1 1020:1 1188:1 1380:1 1723:1 1741:1 2220:1 2472:1 2637:1 
-0.1861352734319973 0.06071544564310565 0.08696979196431957 0 0 0 0.005143367455105861 0.1273583914464358 0 0 0.097737292808233 903:1 982:1 1550:1 1594:1 2394:1 2405:1 2634:1 2909:1 2933:1 
-0 0.9045132565550011 0 0 0 0 0 0 0 0 0 102:1 135:1 192:1 203:1 237:1 242:1 384:1 645:1 722:1 804:1 1026:1 1035:1 1067:1 1289:1 1317:1 1436:1 1563:1 1612:1 1741:1 1799:1 2317:1 2390:1 2405:1 2448:1 2637:3 2687:2 2856:2 2887:1 2904:1 2909:2 2937:1 2939:1 2977:1 
-0 0.3734723645851584 0 0 0 0 0.07585337193904651 0.02843327432276154 1 0 0 1035:1 1397:1 1604:1 1837:1 2317:1 2977:1 
-0.3757086332011789 0.2251684215823735 0.2473800923099176 0 0 0.11501356849585 0 0 0.2717464794796586 0 0 102:1 192:1 203:1 1741:1 2637:1 2886:1 2909:1 
-0.9453274784242393 1 0 0 0 0.04943153316335196 0 0.08528863948191213 0 0 0 181:2 760:1 913:1 1035:1 1058:1 1290:1 1469:1 2287:1 2317:1 2637:2 2856:1 2909:1 2934:1 
-0 1 0 0 0 0.02121243760482666 0 1 0 0 0 134:1 135:1 574:1 848:1 1146:1 1330:1 1380:2 1866:1 1958:1 2317:1 2388:1 2463:1 2562:1 2637:2 2772:1 2808:1 
-0 0 0.01482650185965716 0 0 0 0.1109444785175002 0.0348397923356654 0 0 0 385:1 1148:1 1550:1 1594:1 1848:1 1944:1 2066:1 2288:1 2552:1 2637:1 2645:1 2647:1 2687:1 2909:1 2948:1 
-0.1444640079394973 1 0.1677271795920598 0.4702606165275367 0 0.478877938886847 0 0.5142801419014595 0.4343627210595136 0.07163187479062116 0.1170758756937271 1146:1 1380:1 2472:1 2637:1 2856:1 
-0.3312147581128203 0.07554440282690915 0 0.03032031024536929 0 0.1406450906946181 0.09137802825222287 0.1912807291600264 0 0 0.007964884346267659 85:1 1271:1 1780:1 2156:1 2543:1 2647:1 2856:1 2934:1 
-1 1 0.5629698419885011 0.3787909684117744 0.1419991094125111 0.7671867472335859 0.5355026027843126 0.889632886576624 0.5870144821229898 0.2400479773516701 0.8256709929979912 1161:1 2559:1 
-0.3375127436808676 0.4115877070469985 0.1898226367957901 0.02812168106845088 0 0.1819733810655461 0.1025926153607561 0.2635581637583797 0.08081456547527131 0.08163841593462123 0.4157935747346732 242:1 2091:1 2200:1 2637:1 
-0.129969333344342 0.2199984753415464 0.103916314980546 0.07642268265047419 0.1609272935121416 0.0821092639539051 0.04990101282532371 0.06109648337456264 0.0341285037320599 0.07372481845298311 1 166:1 389:1 804:1 891:1 1161:1 1550:1 2091:1 2637:1 2948:1 
-0.3696973635410084 1 0.0599462579741111 0.1244460033782913 0.1180033234695675 0.2255523528657784 0 0.01065121284236345 1 0 0.2845981807337552 192:1 668:1 1035:1 1079:1 1146:1 1826:1 1910:1 2017:1 2977:1 
-1 1 0.0003080533750542196 0 0 0.1632661750912355 0.05588878750169185 0.1970859831663372 0 0 0 60:1 121:1 497:1 1035:1 1161:1 1380:1 1944:1 2317:1 2659:1 
-0 0.361891634916638 0 0 0 0 0 0 0 0 0.7364753383304949 2317:1 2909:1 2984:1 
-0.2568013895571257 0.2825734689894476 0.1210430828734205 0 0 0.1168923012476278 0.1080611544281171 0.18552383481904 0.1629194511862615 0.04887744103775155 0.07577790288158594 135:1 458:1 589:1 903:1 1237:1 2909:1 
-0.09978088873077355 0.1456080955428595 0.09431691192375963 0 0 0.03530637738300078 0.03959577145452788 0.132918658830923 0 0.02527751483932708 0.05820071564112936 116:1 135:1 1560:1 1762:1 1780:1 1899:1 2033:1 2637:1 2652:1 2703:1 2709:1 2909:1 
-0 0.01983277101438654 0 0 0 0 0 0.9948709582341637 0 0.008275412699458418 0 248:1 385:1 997:1 1775:1 2317:1 2790:1 
-0 0 0 1 0.1267317264132451 0 0 0 0 0 0.03586451889069944 42:1 720:1 936:1 1438:1 1497:1 1741:1 1852:1 2297:1 2472:1 2637:2 2664:1 2909:1 2966:2 
-0 1 0.0688450570122679 0 0 0 0 0 0 0 0.07952232027452298 87:1 164:1 385:1 710:1 803:1 1146:1 1188:1 1781:1 1905:1 2041:1 2472:1 2540:1 2637:2 2687:1 2706:1 2768:1 2909:2 2922:1 
-0 0.03615917659537883 0 0.004743024610243308 0 0.05404586401412348 0 0 0.02708518341675378 0.02942348309980975 0 42:1 385:1 595:1 720:1 1358:1 1436:1 1498:1 1741:1 1763:1 1799:1 1984:1 2325:1 2596:1 2637:1 2840:1 2886:1 2922:1 2948:1 
-0.578322956398113 0.666092261835002 0.178307979387206 0.04808433329112317 0.04360906806765192 1 1 0.3389338952094588 0.313546697500357 0.2625103396809695 0.07258186797607602 135:1 926:1 1041:1 1513:1 1741:1 1762:1 2012:1 2017:1 2637:1 2659:1 2943:1 3001:1 
-0.9333196108758981 0 0 0 0 0 0 1 0 0 0 102:2 181:1 202:1 259:1 385:1 713:1 1099:1 1274:1 1330:2 1386:1 1501:1 1666:1 1903:1 2165:1 2174:1 2472:1 2637:3 2687:1 2909:1 3001:1 
-0 1 0 0 0 0 0 0 0 0 0 135:1 1035:1 2317:1 2532:1 
-0 1 0 0 0 0 0 0.04049015928530286 0 0.01705456023405387 0 135:1 875:1 910:1 1035:1 1380:1 1733:1 1762:1 2045:1 2317:1 2637:1 2760:1 
-0.2118035867852942 0.075093251775289 0.03075594935835517 0 0 0 0.06249589235447049 0 0.0238163597029072 0 0 102:1 166:1 726:1 976:1 1168:1 1380:1 1693:1 2315:1 
-0.04150079045245916 0.0649552521094217 0.03156021184212064 0 0.03095486472813528 0.002963387113472781 0.06559740987948716 0.06809704729157838 0.01259482355974777 0.03574031247663763 0.0260373356416009 135:1 385:1 736:1 777:1 1210:1 1217:1 1258:1 1295:1 1386:1 1762:2 1922:1 2024:1 2034:1 2120:1 2160:1 2307:1 2314:1 2420:1 2574:1 2637:1 2687:1 2783:1 2956:1 3027:1 
-0.07652086985206759 0.02323866175815839 0.01151332820789839 0 0 0.02659372679052709 0.08837518910804121 0.09565343184435808 0.001576981999653301 0 0.01239601889206444 262:1 267:1 1008:1 1041:1 1190:1 1217:1 1221:1 1253:1 1258:1 1274:1 1380:1 1404:1 1490:1 1629:1 1693:2 1801:1 1944:1 2140:1 2165:1 2227:1 2491:1 2634:1 2637:1 2659:1 2687:1 2847:1 
-0.07482135710555554 0.1270488130950333 0.0555453495504729 0.0005058181731426471 0.001231785034991527 0.006122548364880998 0.08030213884895064 0.1234851414809931 0.0326308705057069 0 0.06612725819147383 135:2 139:1 166:1 606:2 803:1 833:1 1042:1 1138:1 1487:1 1693:1 1713:1 1799:1 1817:1 1891:1 2228:1 2315:1 2687:1 
-1 1 0.02956666138561913 0 0 0 0 1 0 0.06437458673334687 0.06013698855003638 671:1 1035:1 1086:1 1161:1 1188:1 1251:1 1281:1 1328:1 1720:1 2637:4 2687:3 
-0.4802196106480348 1 0.1172542975197203 0 0 0.0261270392803928 0.3477551261148129 0.1717851590982318 0.3060557202000081 0.03550987830419636 0 102:1 1035:1 1041:1 2005:1 2416:1 2679:1 2687:1 2701:1 2885:1 3000:1 
-0 1 1 0 0 0.05980864240562181 0 0.1507192313253132 0 0.04739160157927105 0 135:1 213:1 385:1 402:1 1035:1 1161:1 1386:1 1521:1 1615:1 1718:1 2637:3 2856:1 2883:1 2909:2 2948:1 
-0 0.06818805866954289 0.00975042024369128 0.01773159127893302 0 0 0 0 0 0 0 297:1 385:1 402:1 544:1 721:1 1035:1 1041:2 1217:1 1330:1 1386:1 1551:1 1568:1 1744:1 1900:2 1971:1 2343:1 2405:1 2634:1 2637:3 2653:1 2687:2 2694:1 2856:1 2909:1 2922:1 2937:1 2948:1 2964:1 2966:1 2977:1 
-0 0.02969612834818421 0.07690456134285924 0.07486383719772426 0.001360685275681566 0 0 0 0 0.01074121237369771 0.052795825326936 135:1 294:1 539:1 561:1 595:1 999:1 1035:1 1133:1 1221:1 1386:1 1474:1 1487:1 1550:1 1568:1 1762:1 2234:1 2297:1 2630:1 2637:3 2759:1 2953:1 2966:1 3001:1 
-0.1447904344103061 0.1792422923193752 0.02662469324434721 0.001131608879453488 0 0.01065629845391708 0 0.08372986453114567 0.01173170588617477 0 0.03335179907441745 135:1 143:1 170:1 262:1 721:1 982:1 1469:1 1487:1 1666:1 1850:1 2922:2 
-0 0 0 0 0 0 1 0 0 0 0 135:1 644:1 1041:2 1146:1 1367:1 1380:1 1446:1 1723:1 1762:1 1848:1 2098:1 2150:1 2165:1 2317:1 2405:1 2534:2 2634:1 2645:1 2831:1 2909:1 2977:1 
-0 -0 1 0 0 0 0 0 0 0 0 135:1 1035:1 1532:1 1799:1 1982:1 2240:1 2567:1 2637:2 2682:1 2700:2 2909:1 
-0 -0.07992739616721309 0 0 0 0 0 0 0 0 0 116:1 192:1 574:1 834:1 1035:1 1146:1 1217:1 1380:1 1572:1 1820:1 2257:1 2637:1 2681:1 
-0 -0.05501596031203964 0 0 0 0 0 0.04729506592843147 0 0 0.04858864471192474 116:1 121:1 135:1 564:1 813:1 992:1 1031:1 1156:1 1380:1 1762:1 1817:1 2624:1 2637:2 2659:1 2909:1 2977:1 2997:1 
-0.5652351364422681 -0.3024319242556355 0.1515896567313247 0.007123834802193416 0.04630743922418869 1 0.2293809462845078 0.07257569491376546 0.3460703099620567 0 0 407:1 833:1 1041:1 1330:1 1569:1 2017:1 2637:1 2659:1 2934:1 3025:1 
